/*
 * Copyright (c) 2024 EdgeImpulse Inc.
 *
 * Generated by Edge Impulse and licensed under the applicable Edge Impulse
 * Terms of Service. Community and Professional Terms of Service
 * (https://docs.edgeimpulse.com/page/terms-of-service) or Enterprise Terms of
 * Service (https://docs.edgeimpulse.com/page/enterprise-terms-of-service),
 * according to your product plan subscription (the “License”).
 *
 * This software, documentation and other associated files (collectively referred
 * to as the “Software”) is a single SDK variation generated by the Edge Impulse
 * platform and requires an active paid Edge Impulse subscription to use this
 * Software for any purpose.
 *
 * You may NOT use this Software unless you have an active Edge Impulse subscription
 * that meets the eligibility requirements for the applicable License, subject to
 * your full and continued compliance with the terms and conditions of the License,
 * including without limitation any usage restrictions under the applicable License.
 *
 * If you do not have an active Edge Impulse product plan subscription, or if use
 * of this Software exceeds the usage limitations of your Edge Impulse product plan
 * subscription, you are not permitted to use this Software and must immediately
 * delete and erase all copies of this Software within your control or possession.
 * Edge Impulse reserves all rights and remedies available to enforce its rights.
 *
 * Unless required by applicable law or agreed to in writing, the Software is
 * distributed on an "AS IS" BASIS, WITHOUT WARRANTIES OR CONDITIONS OF ANY KIND,
 * either express or implied. See the License for the specific language governing
 * permissions, disclaimers and limitations under the License.
 */
// Generated on: 16.01.2025 03:09:21

#include <stdio.h>
#include <stdlib.h>
#include "edge-impulse-sdk/tensorflow/lite/c/builtin_op_data.h"
#include "edge-impulse-sdk/tensorflow/lite/c/common.h"
#include "edge-impulse-sdk/tensorflow/lite/micro/micro_mutable_op_resolver.h"
#include "edge-impulse-sdk/porting/ei_classifier_porting.h"

#if EI_CLASSIFIER_PRINT_STATE
#if defined(__cplusplus) && EI_C_LINKAGE == 1
extern "C" {
    extern void ei_printf(const char *format, ...);
}
#else
extern void ei_printf(const char *format, ...);
#endif
#endif

#define STRINGIZE(x) #x
#define STRINGIZE_VALUE_OF(x) STRINGIZE(x)

#if defined (__GNUC__)  /* GNU compiler */
#define ALIGN(X) __attribute__((aligned(X)))
#define DEFINE_SECTION(x) __attribute__((section(x)))
#elif defined (_MSC_VER)
#define ALIGN(X) __declspec(align(X))
#elif defined (__TASKING__) /* TASKING Compiler */
#define ALIGN(X) __align(X)
#define DEFINE_SECTION(x) __attribute__((section(x)))
#elif defined (__ARMCC_VERSION) /* Arm Compiler */
#define ALIGN(X) __ALIGNED(x)
#define DEFINE_SECTION(x) __attribute__((section(x)))
#elif defined (__ICCARM__) /* IAR Compiler */
#define ALIGN(x) __attribute__((aligned(x)))
#define DEFINE_SECTION(x) __attribute__((section(x)))
#elif defined (__clang__) /* LLVM/Clang Compiler */
#define ALIGN(X) __ALIGNED(x)
#define DEFINE_SECTION(x) __attribute__((section(x)))
#endif

#if defined(EI_MODEL_SECTION) && (defined(__GNUC__) || defined(__clang__))
#define MODEL_SECTION(X) __attribute__((section(STRINGIZE_VALUE_OF(X))))
#else
#define MODEL_SECTION(X)
#endif

#ifndef EI_MAX_SCRATCH_BUFFER_COUNT
#ifndef CONFIG_IDF_TARGET_ESP32S3
#define EI_MAX_SCRATCH_BUFFER_COUNT 4
#else
#define EI_MAX_SCRATCH_BUFFER_COUNT 4
#endif // CONFIG_IDF_TARGET_ESP32S3
#endif // EI_MAX_SCRATCH_BUFFER_COUNT

#ifndef EI_MAX_OVERFLOW_BUFFER_COUNT
#define EI_MAX_OVERFLOW_BUFFER_COUNT 10
#endif // EI_MAX_OVERFLOW_BUFFER_COUNT

using namespace tflite;
using namespace tflite::ops;
using namespace tflite::ops::micro;

namespace {

#if defined(EI_CLASSIFIER_ALLOCATION_STATIC_HIMAX) || defined(EI_CLASSIFIER_ALLOCATION_STATIC_HIMAX_GNU)
constexpr int kTensorArenaSize = 44002848;
#else
constexpr int kTensorArenaSize = 44001824;
#endif

#if defined(EI_CLASSIFIER_ALLOCATION_STATIC)
#if defined (EI_TENSOR_ARENA_LOCATION)
uint8_t tensor_arena[kTensorArenaSize] ALIGN(16) DEFINE_SECTION(STRINGIZE_VALUE_OF(EI_TENSOR_ARENA_LOCATION));
#else
uint8_t tensor_arena[kTensorArenaSize] ALIGN(16);
#endif
#elif defined(EI_CLASSIFIER_ALLOCATION_STATIC_HIMAX)
#pragma Bss(".tensor_arena")
uint8_t tensor_arena[kTensorArenaSize] ALIGN(16);
#pragma Bss()
#elif defined(EI_CLASSIFIER_ALLOCATION_STATIC_HIMAX_GNU)
uint8_t tensor_arena[kTensorArenaSize] ALIGN(16) __attribute__((section(".tensor_arena")));
#else
#define EI_CLASSIFIER_ALLOCATION_HEAP 1
uint8_t* tensor_arena = NULL;
#endif

static uint8_t* tensor_boundary;
static uint8_t* current_location;

template <int SZ, class T> struct TfArray {
  int sz; T elem[SZ];
};

enum used_operators_e {
  OP_CONV_2D, OP_DEPTHWISE_CONV_2D, OP_ADD, OP_PAD, OP_SOFTMAX,  OP_LAST
};

struct TensorInfo_t { // subset of TfLiteTensor used for initialization from constant memory
  TfLiteAllocationType allocation_type;
  TfLiteType type;
  void* data;
  TfLiteIntArray* dims;
  size_t bytes;
};

typedef struct {
  TfLiteTensor tensor;
  int16_t index;
} TfLiteTensorWithIndex;

typedef struct {
  TfLiteEvalTensor tensor;
  int16_t index;
} TfLiteEvalTensorWithIndex;

TfLiteContext ctx{};
static const int MAX_TFL_TENSOR_COUNT = 4;
static TfLiteTensorWithIndex tflTensors[MAX_TFL_TENSOR_COUNT];
static const int MAX_TFL_EVAL_COUNT = 4;
static TfLiteEvalTensorWithIndex tflEvalTensors[MAX_TFL_EVAL_COUNT];
TfLiteRegistration registrations[OP_LAST];

namespace g0 {
const TfArray<4, int> tensor_dimension0 = { 4, { 1,676,676,3 } };
const MODEL_SECTION(EI_MODEL_SECTION) ALIGN(16) float tensor_data1[8] = { 3.2892885208129883, 0.2718445360660553, 3.6664965152740479, 1.1601850986480713, 1.803648829460144, 3.0224347114562988, 0.20635581016540527, 3.0266916751861572, };
const TfArray<1, int> tensor_dimension1 = { 1, { 8 } };
const MODEL_SECTION(EI_MODEL_SECTION) ALIGN(16) float tensor_data2[8] = { 1.668973445892334, 0.19935619831085205, -0.21468150615692139, 0.28012841939926147, 2.3555037975311279, -0.22228892147541046, 0.24447613954544067, -0.022684872150421143, };
const TfArray<1, int> tensor_dimension2 = { 1, { 8 } };
const MODEL_SECTION(EI_MODEL_SECTION) ALIGN(16) float tensor_data3[48] = { -0.42695704102516174, -1.8066825866699219, 0.8693307638168335, 1.123326301574707, 3.0459411144256592, 2.530238151550293, 2.4473636150360107, 0.3530193567276001, -0.83264219760894775, -2.2749621868133545, 1.1762634515762329, 1.2883706092834473, 1.3780832290649414, -4.1372942924499512, 0.15055739879608154, 0.29651486873626709, -1.9171429872512817, -0.22991961240768433, 0.77723318338394165, 1.4261946678161621, 1.2552033662796021, 3.6728856563568115, 0.14579653739929199, 0.20345278084278107, 2.5795943737030029, 2.0320003032684326, 3.9258449077606201, -3.4108402729034424, 2.0749762058258057, -0.35255178809165955, -0.13170048594474792, -4.443819522857666, 2.2089338302612305, 1.929705023765564, 3.1838841438293457, -1.0023410320281982, -4.6598076820373535, 0.15881951153278351, -4.2167840003967285, -0.068278789520263672, -3.9640452861785889, -2.4283664226531982, -0.55545991659164429, 1.180359959602356, 1.0270742177963257, -3.0582215785980225, 0.30516287684440613, -1.010732889175415, };
const TfArray<1, int> tensor_dimension3 = { 1, { 48 } };
const MODEL_SECTION(EI_MODEL_SECTION) ALIGN(16) float tensor_data4[48] = { 0.27286982536315918, -0.12066331505775452, 0.97738450765609741, 0.44080454111099243, 0.85303455591201782, 0.65699923038482666, 0.22176185250282288, 0.85185515880584717, 0.56784987449645996, -0.10047413408756256, -0.36345982551574707, 0.0046662092208862305, 0.26984339952468872, 0.11189833283424377, -0.0091737508773803711, -1.0686805248260498, 1.8038080930709839, -0.035295836627483368, 0.051108594983816147, 2.8346245288848877, 1.008769154548645, 1.4459011554718018, 0.69241082668304443, 0.63683050870895386, 0.17099623382091522, -4.1201858520507812, 0.94538909196853638, -0.18470636010169983, 0.37777319550514221, -0.24909161031246185, 0.40962716937065125, 0.6677478551864624, -0.14159439504146576, -1.2356919050216675, 0.031771715730428696, 0.090788722038269043, 1.2446286678314209, -0.29920494556427002, 0.33902585506439209, 0.40831878781318665, -0.013182371854782104, -0.72096270322799683, 1.2517766952514648, -0.97301554679870605, 0.5797734260559082, 0.27599227428436279, -1.015471339225769, 0.62227153778076172, };
const TfArray<1, int> tensor_dimension4 = { 1, { 48 } };
const MODEL_SECTION(EI_MODEL_SECTION) ALIGN(16) float tensor_data5[48] = { 0.91537582874298096, 0.50618904829025269, 0.71298593282699585, 1.113173246383667, 0.41472610831260681, 0.79295456409454346, 0.60008382797241211, 0.62614619731903076, 0.58662629127502441, 0.73995709419250488, 0.72549819946289062, 0.68856000900268555, 0.77543932199478149, 0.41305249929428101, 0.55116176605224609, -0.014058885164558887, 0.084047280251979828, -0.76239055395126343, 0.92890691757202148, 1.0469051599502563, 0.74088048934936523, 0.81518179178237915, 0.86056345701217651, 0.24138607084751129, 0.58829444646835327, 0.90192437171936035, 0.68764978647232056, -0.050854131579399109, -0.42053326964378357, 0.89541041851043701, 0.95293974876403809, 0.83105617761611938, 0.59854006767272949, 0.25766465067863464, 0.61176174879074097, -0.13024654984474182, 0.19678366184234619, 0.38128843903541565, 0.073142074048519135, 0.73303449153900146, 0.39261201024055481, 0.87578356266021729, 0.40769794583320618, 0.20614993572235107, 0.54493629932403564, 0.47192379832267761, -0.078001953661441803, 1.03575599193573, };
const TfArray<1, int> tensor_dimension5 = { 1, { 48 } };
const MODEL_SECTION(EI_MODEL_SECTION) ALIGN(16) float tensor_data6[48] = { 2.2753911018371582, 1.1955986022949219, -0.28406092524528503, 2.8644967079162598, 0.18031139671802521, 0.19949692487716675, 0.45960557460784912, -0.17042592167854309, 0.27520996332168579, 1.2210284471511841, 0.16383957862854004, -0.053569674491882324, -0.73447513580322266, 1.5411756038665771, 0.6418609619140625, -0.097918540239334106, -0.2745843231678009, -0.63229799270629883, -2.1058721542358398, -0.094027414917945862, 1.5027157068252563, -0.13334377110004425, -1.9443820714950562, 0.022189170122146606, -1.4066687822341919, -0.6531413197517395, 0.42701584100723267, -0.15811625123023987, -0.81665372848510742, -0.38098788261413574, -0.84900730848312378, 0.8144538402557373, 0.78084194660186768, -0.69449061155319214, 0.26408150792121887, 1.2019050121307373, -0.21095749735832214, 0.14346349239349365, 0.058113217353820801, 0.87436425685882568, 0.99945163726806641, 0.39397907257080078, 0.4421347975730896, 0.062840580940246582, -0.20309458673000336, -0.37258663773536682, -0.55501830577850342, 2.7897417545318604, };
const TfArray<1, int> tensor_dimension6 = { 1, { 48 } };
const MODEL_SECTION(EI_MODEL_SECTION) ALIGN(16) float tensor_data7[48] = { 0.22640198469161987, 0.68394005298614502, 0.4709780216217041, -0.05559808760881424, -0.18849772214889526, 0.058596391230821609, 0.84084171056747437, 0.5984426736831665, 0.50900685787200928, -0.54065364599227905, 0.38077828288078308, 0.035034831613302231, 0.71519982814788818, 0.058650676161050797, 0.40955263376235962, -0.31324738264083862, -0.082675814628601074, 0.6484643816947937, 0.27225282788276672, 0.39303892850875854, -0.22773410379886627, 1.6102573871612549, 0.4216596782207489, -0.25380447506904602, 0.29985252022743225, 0.74938994646072388, 0.5676608681678772, -0.43379288911819458, 0.092164322733879089, 0.054908908903598785, -0.49595537781715393, -0.34601956605911255, 0.76458698511123657, 0.30260246992111206, 0.93480843305587769, 0.93537718057632446, 0.9068867564201355, 0.82349002361297607, -0.60595542192459106, -0.35535994172096252, -0.28279772400856018, 0.48669004440307617, 0.28486764430999756, 0.20284827053546906, -0.46920713782310486, -0.53755152225494385, 0.56030148267745972, 0.22500957548618317, };
const TfArray<1, int> tensor_dimension7 = { 1, { 48 } };
const MODEL_SECTION(EI_MODEL_SECTION) ALIGN(16) float tensor_data8[48] = { 1.1869139671325684, 1.5018433332443237, 0.36565950512886047, 1.5551866292953491, 0.3472021222114563, 0.74489212036132812, 1.4305202960968018, 0.84784632921218872, 1.9292283058166504, -0.078227542340755463, 0.10566222667694092, 1.2481749057769775, 1.6977716684341431, -0.0048710107803344727, 0.15668737888336182, 0.14754661917686462, 0.32375907897949219, 1.9646650552749634, 0.95018255710601807, 0.63673454523086548, 0.25269606709480286, -1.516371488571167, -0.26801002025604248, 0.13575440645217896, 1.6948527097702026, 2.2169322967529297, 0.36135560274124146, -0.1255551278591156, 0.21836820244789124, 1.4054498672485352, -0.41283446550369263, 0.40089106559753418, -1.3132212162017822, 1.2308758497238159, 2.5040442943572998, 2.7384114265441895, 2.387779712677002, 2.1391527652740479, -0.0068648010492324829, 0.15292072296142578, 0.83911556005477905, 1.4034465551376343, 0.12181234359741211, -0.12955421209335327, 0.24166518449783325, -0.064443111419677734, 1.2268459796905518, 0.90980774164199829, };
const TfArray<1, int> tensor_dimension8 = { 1, { 48 } };
const MODEL_SECTION(EI_MODEL_SECTION) ALIGN(16) float tensor_data9[48] = { 1.008994460105896, -0.13563758134841919, 0.39390581846237183, 0.32219827175140381, 0.68683069944381714, 0.15255221724510193, 0.64157390594482422, -0.15442632138729095, 0.94272464513778687, 0.76238274574279785, -0.10878615826368332, -0.053038548678159714, 0.44559094309806824, 0.33495110273361206, 0.079921461641788483, 0.60146009922027588, 0.53109967708587646, 0.7072833776473999, -0.38648742437362671, -0.090965829789638519, 0.69706398248672485, 0.32220590114593506, 0.67210942506790161, -7.5234158430248499e-05, 0.73037856817245483, 0.74674886465072632, 0.88044285774230957, -0.26602712273597717, 0.9041251540184021, -0.02443544939160347, 0.75417113304138184, 0.65913265943527222, 0.81793856620788574, 0.043204568326473236, 0.31607162952423096, 0.70868164300918579, 0.66077369451522827, 0.41460070013999939, 0.53975892066955566, 0.25322049856185913, -0.049719508737325668, 0.74233239889144897, 0.75472909212112427, 0.7089419960975647, 0.85583233833312988, 0.31351882219314575, 0.032201308757066727, 0.64751720428466797, };
const TfArray<1, int> tensor_dimension9 = { 1, { 48 } };
const MODEL_SECTION(EI_MODEL_SECTION) ALIGN(16) float tensor_data10[48] = { 2.9771590232849121, 1.0920314788818359, 0.85807067155838013, 1.3632092475891113, 1.547951340675354, -0.58694058656692505, 0.31673514842987061, -0.038750588893890381, 0.33567214012145996, -3.8891541957855225, -0.55515384674072266, -0.42091313004493713, 0.97834837436676025, 1.2645794153213501, 1.4046323299407959, -0.39295488595962524, 0.82698726654052734, 0.99801015853881836, 0.072847336530685425, -0.63346374034881592, 1.1001529693603516, -0.58065289258956909, 1.2236853837966919, -0.25115635991096497, 1.2913483381271362, 1.4956963062286377, -1.7843227386474609, 0.10320678353309631, -1.0138214826583862, 0.32479655742645264, 1.4745759963989258, 2.1743917465209961, -0.21646067500114441, -0.84766572713851929, 0.11413662135601044, 0.45223033428192139, 1.9255822896957397, 0.6503300666809082, 0.37015509605407715, 0.34417453408241272, 1.2846993207931519, -1.158165454864502, 1.2245734930038452, 0.28073284029960632, 0.8468061089515686, 0.37803667783737183, 1.3681755065917969, -1.1089856624603271, };
const TfArray<1, int> tensor_dimension10 = { 1, { 48 } };
const MODEL_SECTION(EI_MODEL_SECTION) ALIGN(16) float tensor_data11[48] = { -0.26398441195487976, -0.45193716883659363, 0.68695312738418579, -0.10028862208127975, -0.47290399670600891, 0.26669406890869141, 0.49804964661598206, 1.2318881750106812, 0.30514717102050781, 0.57075732946395874, 0.75877642631530762, 0.389097660779953, 0.34738931059837341, 0.86954671144485474, 0.8027186393737793, -0.45261317491531372, 1.0053350925445557, 0.28487813472747803, 0.18945451080799103, -0.58222091197967529, 0.011106534861028194, -0.12744151055812836, 0.36840531229972839, 0.96125036478042603, 0.21134689450263977, 0.70546054840087891, 0.57114464044570923, -0.060919973999261856, 0.52447760105133057, 0.048074513673782349, 0.28854784369468689, -0.38887301087379456, -0.38422822952270508, -0.32050752639770508, -0.56109040975570679, 0.37491697072982788, 0.45529136061668396, 0.34996318817138672, 0.45605286955833435, 0.41774985194206238, 0.65848493576049805, 0.20829111337661743, 0.68507283926010132, 0.47092181444168091, 0.92060673236846924, 0.74067860841751099, -0.22333820164203644, 0.20272627472877502, };
const TfArray<1, int> tensor_dimension11 = { 1, { 48 } };
const MODEL_SECTION(EI_MODEL_SECTION) ALIGN(16) float tensor_data12[48] = { 0.047672659158706665, -0.77717840671539307, 0.31911110877990723, -0.14065879583358765, 0.022524118423461914, -0.01654975488781929, 0.41294670104980469, 7.1779012680053711, -0.81789016723632812, 1.1187405586242676, 1.5422290563583374, -0.46277907490730286, 0.86255890130996704, -0.10764751583337784, 1.1893792152404785, -0.042372927069664001, 0.46047917008399963, 0.01809614896774292, 0.45815533399581909, -0.47329345345497131, -0.45585125684738159, -0.54111826419830322, -1.4275921583175659, 0.23980045318603516, 1.1780873537063599, 0.67260044813156128, -0.55966866016387939, 0.3991987407207489, 1.6992683410644531, 0.48941093683242798, 1.2136468887329102, -0.28709596395492554, -1.3374733924865723, -0.13245637714862823, -0.63565266132354736, -0.73520976305007935, 0.57843410968780518, 0.60758638381958008, -0.36920619010925293, 1.3141140937805176, 0.75228482484817505, 0.23102618753910065, -0.74568831920623779, -1.1265997886657715, -1.8169612884521484, 1.1325660943984985, 0.1210637092590332, 0.75441503524780273, };
const TfArray<1, int> tensor_dimension12 = { 1, { 48 } };
const MODEL_SECTION(EI_MODEL_SECTION) ALIGN(16) float tensor_data13[48] = { -0.0778094083070755, 0.31637132167816162, 0.27356931567192078, 0.60842746496200562, 0.94198119640350342, -0.15557710826396942, -0.34381347894668579, 0.96677893400192261, 0.27402228116989136, 0.80611366033554077, 0.051316775381565094, -0.36143648624420166, 0.65658688545227051, -0.66973906755447388, 0.72655832767486572, -0.26513934135437012, -0.049683824181556702, -0.16932843625545502, 0.2062654048204422, 0.548248291015625, 0.63980430364608765, 0.50697624683380127, 0.64620393514633179, 0.11463038623332977, -0.51603662967681885, -0.4439074695110321, 0.10612080246210098, 0.51245605945587158, 0.33138254284858704, 0.6211053729057312, -0.14483079314231873, 0.61235547065734863, 0.66521281003952026, 0.74539422988891602, 0.41389447450637817, 0.23153688013553619, 0.8494834303855896, 0.24745889008045197, 0.16507463157176971, -0.24865148961544037, 0.13474810123443604, 0.97023767232894897, -0.12678651511669159, 0.18714657425880432, 0.81431752443313599, 0.0070179547183215618, 0.24168172478675842, 0.76896041631698608, };
const TfArray<1, int> tensor_dimension13 = { 1, { 48 } };
const MODEL_SECTION(EI_MODEL_SECTION) ALIGN(16) float tensor_data14[32] = { 0.0021447776816785336, 0.018822351470589638, 0.019657962024211884, -0.013122058473527431, -0.022666238248348236, 0.021160107105970383, -0.012821493670344353, 0.016347294673323631, -0.018592493608593941, -0.013986853882670403, 0.01852630078792572, 0.019124539569020271, 0.014301959425210953, 0.017943141981959343, 0.01403824333101511, -0.031895864754915237, -0.020919034257531166, 0.025665123015642166, -0.0013178708031773567, -0.025065852329134941, -0.0051984954625368118, 0.018781267106533051, 0.012990832328796387, 0.018656861037015915, 0.010734651237726212, 0.016020819544792175, -0.024915233254432678, 0.074910491704940796, 0.018549809232354164, -0.015036107040941715, -0.013297333382070065, -0.018466370180249214, };
const TfArray<1, int> tensor_dimension14 = { 1, { 32 } };
const MODEL_SECTION(EI_MODEL_SECTION) ALIGN(16) float tensor_data15[1*3*3*8] = { 
  /* [0][0][][] */ -0.15242208540439606,-0.14633285999298096,-0.0015238154446706176,-0.014796501956880093,-0.0069312164559960365,0.66822683811187744,0.011948799714446068,-0.010831450112164021, 0.042699448764324188,-0.044375840574502945,0.010653328150510788,-0.26486793160438538,0.084646895527839661,3.0869674682617188,0.39259329438209534,0.54928791522979736, -0.01360632199794054,0.021103505045175552,0.048755623400211334,-0.31429702043533325,-0.015082104131579399,0.39443141222000122,0.23488695919513702,0.018046403303742409, 
  /* [0][1][][] */ 0.0038285939954221249,-2.6562764644622803,-0.067363180220127106,0.1759476512670517,-0.11829416453838348,-0.13059784471988678,-2.9049015045166016,-0.015896335244178772, -0.74799561500549316,2.0194346904754639,-0.71624499559402466,5.986055850982666,-1.0104783773422241,-0.16384610533714294,3.6135694980621338,-0.17801015079021454, 0.045948188751935959,-0.017173483967781067,-0.0066325725056231022,-3.0032498836517334,-0.048627901822328568,0.043972000479698181,1.5350948572158813,-0.11404410749673843, 
  /* [0][2][][] */ 0.080186314880847931,-0.1105978861451149,0.0050229229964315891,-0.1566542387008667,-0.010517274960875511,-0.53842514753341675,0.25577223300933838,-0.018962584435939789, 0.30399429798126221,-0.056818768382072449,1.2289340496063232,-0.97333920001983643,0.082194678485393524,-2.7176957130432129,0.15885826945304871,0.028561349958181381, 0.024759009480476379,-0.0020089347381144762,-0.059815604239702225,-0.3542829155921936,-0.042202293872833252,-0.49043926596641541,-0.0023896824568510056,-0.021176435053348541, 
};
const TfArray<4, int> tensor_dimension15 = { 4, { 1,3,3,8 } };
const MODEL_SECTION(EI_MODEL_SECTION) ALIGN(16) float tensor_data16[8] = { 0.29518896341323853, 0.38244667649269104, -0.36399948596954346, -2.0711016654968262, 0.0039682434871792793, -0.18344543874263763, -0.01099318265914917, 0.83909261226654053, };
const TfArray<1, int> tensor_dimension16 = { 1, { 8 } };
const MODEL_SECTION(EI_MODEL_SECTION) ALIGN(16) float tensor_data17[1*3*3*48] = { 
  /* [0][0][][] */ 0.2660413384437561,-0.34485435485839844,-4.4106216430664062,-2.6663880348205566,0.17836864292621613,-1.1643004417419434,0.21590612828731537,-0.70948261022567749,0.76790082454681396,0.45975485444068909,0.40938350558280945,1.0663001537322998,-3.6397402286529541,0.46572396159172058,0.26199403405189514,-48.490497589111328,0.65075397491455078,-0.79418253898620605,0.030706414952874184,-0.1435772180557251,-4.1048665046691895,-0.23455651104450226,1.1273279190063477,1.4663558006286621,0.006295627448707819,1.5422134399414062,-0.068348824977874756,1.399322509765625,-2.7903168201446533,-0.10992320626974106,0.26991564035415649,-0.38146492838859558,-2.2234327793121338,-3.358633279800415,0.29318484663963318,0.59856271743774414,-1.1827075481414795,0.17126075923442841,0.4526512622833252,1.2287108898162842,-1.0365639925003052,-3.4181673526763916,-0.14572378993034363,0.32529473304748535,-1.9773067235946655,-1.3891028165817261,2.0330789089202881,-3.7637124061584473, 0.18890844285488129,-0.56596708297729492,4.5781574249267578,3.6030287742614746,0.71472698450088501,0.40114647150039673,0.35092523694038391,-1.576209545135498,-0.78162437677383423,1.8836413621902466,0.25349327921867371,1.6389816999435425,-0.025790814310312271,0.44877129793167114,0.27897289395332336,49.547744750976562,0.67734235525131226,-0.75993996858596802,-1.5051401853561401,-0.19924841821193695,2.6513018608093262,-0.36748310923576355,1.6037075519561768,-0.055233929306268692,0.53365230560302734,2.7099437713623047,-0.22814188897609711,1.6868050098419189,0.088743157684803009,0.31075111031532288,0.26706653833389282,-0.25469881296157837,2.1819536685943604,6.4106912612915039,0.80615103244781494,0.84126770496368408,-0.85580527782440186,0.18763083219528198,0.30731767416000366,-0.53236532211303711,2.010655403137207,0.78435486555099487,-0.094406694173812866,0.64561891555786133,3.4183473587036133,3.7911076545715332,-0.70634806156158447,-0.57590866088867188, 0.05766957625746727,-0.21701085567474365,0.016515458002686501,-1.2266150712966919,0.29656192660331726,0.6071704626083374,0.048366870731115341,-1.2225805521011353,-0.044035661965608597,0.91684198379516602,-0.34425061941146851,0.82836335897445679,3.441530704498291,-0.095780417323112488,-0.31061077117919922,-0.20565082132816315,0.29262712597846985,-0.26530840992927551,1.3133434057235718,-0.078725427389144897,1.0230499505996704,0.019199183210730553,-2.676112174987793,-1.2997310161590576,0.13344097137451172,0.076529830694198608,-0.051579330116510391,0.64730608463287354,0.82326203584671021,0.47169336676597595,0.14789400994777679,0.051217224448919296,-0.31676989793777466,-2.4011166095733643,0.20513148605823517,0.21020200848579407,-0.18757855892181396,0.036733642220497131,0.072681121528148651,-0.99085360765457153,-1.2392579317092896,3.1017129421234131,0.069666683673858643,0.49067789316177368,-1.758522629737854,-3.0447998046875,-0.37287396192550659,3.265446662902832, 
  /* [0][1][][] */ 0.31059333682060242,0.71291029453277588,-7.8043394088745117,0.4097055196762085,-0.68134409189224243,-1.4453694820404053,0.20234523713588715,-0.70186054706573486,1.0823311805725098,-1.361762523651123,0.53855890035629272,-2.2413678169250488,3.3819832801818848,0.75157392024993896,0.61766594648361206,52.0198974609375,-0.34523087739944458,0.91760098934173584,-0.19020546972751617,-0.30004620552062988,3.5070745944976807,-0.33416679501533508,1.5289101600646973,1.7274466753005981,-0.060914371162652969,-0.11613722890615463,-0.19070219993591309,0.54893255233764648,-1.2184028625488281,0.51993745565414429,0.19148233532905579,-0.57110577821731567,-5.9177193641662598,-3.8750441074371338,-0.12233162671327591,0.20314334332942963,-0.20308004319667816,0.33860534429550171,0.5263906717300415,2.064445972442627,-1.1977832317352295,-2.0063040256500244,-0.38968750834465027,0.33852115273475647,-0.099644139409065247,-1.1635286808013916,-32.11798095703125,-5.7636384963989258, 0.2920510470867157,1.3573504686355591,6.8672795295715332,-0.666542649269104,-1.0568338632583618,0.14202746748924255,0.40709573030471802,-1.4573845863342285,-1.2895852327346802,-2.4350254535675049,0.35314744710922241,-2.9504666328430176,1.4343433380126953,1.0605325698852539,0.50065821409225464,-51.607269287109375,-0.28600463271141052,1.0499726533889771,1.7887272834777832,-0.41401755809783936,-2.2019641399383545,-0.55339199304580688,2.312375545501709,-0.60426223278045654,0.27491495013237,0.21203985810279846,-0.80838823318481445,1.5574043989181519,0.24260543286800385,0.8228154182434082,0.39037936925888062,-0.47713813185691833,5.7998476028442383,7.2173237800598145,-0.17252537608146667,0.018525438383221626,-0.27229508757591248,0.46071773767471313,0.37918952107429504,-0.78064709901809692,2.8105919361114502,-0.036998040974140167,-0.16540312767028809,0.85321396589279175,-0.30970689654350281,4.3785896301269531,31.860837936401367,1.8685240745544434, 0.06538005918264389,0.56041699647903442,-0.043692689388990402,0.25193703174591064,-0.27089589834213257,0.88014531135559082,0.08689919114112854,-1.0255502462387085,-0.068698108196258545,-1.7969976663589478,-0.34117498993873596,-1.664798378944397,-4.7177772521972656,-0.0058364793658256531,-0.34700831770896912,0.51889848709106445,0.32170271873474121,0.27456545829772949,-1.6380724906921387,-0.18162509799003601,-1.6597590446472168,-0.063013054430484772,-4.0431275367736816,-1.5388462543487549,-0.17677842080593109,0.041337631642818451,-0.44443720579147339,0.57821452617645264,0.99212819337844849,0.42473322153091431,0.092942126095294952,0.040085792541503906,0.40735667943954468,-3.3013083934783936,-0.037047181278467178,-0.036123398691415787,-0.093410387635231018,0.10699924826622009,0.12319394201040268,-1.3518757820129395,-1.4255160093307495,2.6546316146850586,-0.018573949113488197,0.67839998006820679,0.12007945030927658,-3.2645530700683594,1.0024782419204712,4.1816840171813965, 
  /* [0][2][][] */ 0.11052240431308746,-0.42400869727134705,-1.8238962888717651,-0.064512349665164948,0.32235121726989746,-0.27740007638931274,0.034270938485860825,-0.20247021317481995,0.83350968360900879,0.44981801509857178,0.097790367901325226,1.0133867263793945,0.17395111918449402,0.37841534614562988,-0.048328697681427002,-5.3772506713867188,-1.0040035247802734,-0.2290530651807785,-0.046893913298845291,-0.078899361193180084,0.44477534294128418,-0.1643022745847702,0.29823553562164307,0.54950755834579468,0.32796698808670044,-0.28142067790031433,-0.10076304525136948,-1.7254974842071533,0.43866604566574097,0.30900505185127258,-0.057761620730161667,-0.3935839831829071,-1.1232389211654663,-2.2348642349243164,-0.43090292811393738,-0.009292147122323513,0.61327850818634033,0.11140149086713791,0.1449928879737854,1.1110069751739502,-2.072904109954834,-1.3693161010742188,-0.36625301837921143,0.27110353112220764,-0.027529390528798103,-0.30071747303009033,24.152183532714844,-2.9762241840362549, 0.021458875387907028,-0.65263986587524414,0.19813144207000732,-0.065541401505470276,0.30278921127319336,0.04090750589966774,0.1080782562494278,-0.52494591474533081,-0.96732616424560547,1.2991195917129517,-0.022786574438214302,1.3835278749465942,-0.86595863103866577,0.53457778692245483,-0.030749225988984108,6.0087356567382812,-0.75656646490097046,-0.18414747714996338,-0.15331979095935822,-0.18467968702316284,-0.91743010282516479,-0.30232927203178406,0.89066207408905029,-0.26898291707038879,0.51552939414978027,-0.22152937948703766,-0.28162679076194763,-2.3702454566955566,0.35547339916229248,0.36719918251037598,-0.021918457001447678,-0.29121571779251099,1.4204280376434326,4.6117825508117676,-0.3603833019733429,0.096385620534420013,0.68686342239379883,0.20814937353134155,0.093226224184036255,-0.48474380373954773,-1.1179889440536499,0.20123091340065002,-0.19052085280418396,0.51879501342773438,-0.19142527878284454,-0.51584631204605103,-24.586675643920898,2.5145716667175293, 0.00012879427231382579,-0.26328563690185547,1.2499691247940063,0.033630724996328354,0.072269752621650696,0.23143871128559113,0.038127567619085312,-0.1933099776506424,-0.063877247273921967,1.0632219314575195,-0.15481668710708618,0.64331132173538208,0.6026376485824585,-0.1097627729177475,-0.100095234811306,0.6757093071937561,0.22437678277492523,-0.016993902623653412,0.27058014273643494,-0.14279255270957947,0.22817569971084595,0.042900629341602325,-1.3343284130096436,-0.85129642486572266,-0.093974798917770386,-0.16295929253101349,-0.076468437910079956,-0.67117100954055786,0.36738482117652893,0.40150398015975952,-0.02903042733669281,0.069995962083339691,-0.092232070863246918,-1.992836594581604,-0.23652434349060059,0.02839386835694313,0.52878421545028687,0.073928289115428925,0.009163261391222477,-0.79450201988220215,-2.029120922088623,1.6246427297592163,-0.066420525312423706,0.26668941974639893,0.11745008081197739,-0.046958815306425095,1.6033483743667603,0.43297463655471802, 
};
const TfArray<4, int> tensor_dimension17 = { 4, { 1,3,3,48 } };
const MODEL_SECTION(EI_MODEL_SECTION) ALIGN(16) float tensor_data18[8] = { 0.74449563026428223, 0.072639085352420807, 0.47985804080963135, 2.1323869228363037, 1.3374869823455811, 0.54152262210845947, 0.56436628103256226, -1.3584145307540894, };
const TfArray<1, int> tensor_dimension18 = { 1, { 8 } };
const MODEL_SECTION(EI_MODEL_SECTION) ALIGN(16) float tensor_data19[1*3*3*48] = { 
  /* [0][0][][] */ -0.6377289891242981,0.59196025133132935,-0.62263733148574829,-0.91519254446029663,-0.16227291524410248,-1.0413967370986938,0.06905287504196167,-0.20552565157413483,0.0073519041761755943,-0.13990932703018188,0.083114497363567352,0.71193838119506836,-0.023442326113581657,-0.40128353238105774,-0.6064179539680481,0.27271473407745361,0.23939791321754456,-1.0525096654891968,1.689278244972229,0.43411821126937866,-0.41684108972549438,-1.8992190361022949,0.43164172768592834,-0.70141702890396118,-0.048834506422281265,-0.77194124460220337,-0.13037736713886261,1.6103460788726807,-0.70297223329544067,0.14150844514369965,0.25350448489189148,3.8989355564117432,-0.048846635967493057,-0.23488757014274597,-0.23726202547550201,-0.091448046267032623,-0.17117117345333099,-0.38508540391921997,-0.82271188497543335,0.27163034677505493,0.29521635174751282,-1.5274977684020996,-0.3730522096157074,0.26111340522766113,0.89531004428863525,-2.5609877109527588,-0.16937017440795898,-0.0039674947038292885, -0.12169218063354492,-1.6261734962463379,0.35420823097229004,-2.3194961547851562,-0.064732953906059265,-1.2304524183273315,-0.36796480417251587,1.7496798038482666,0.144887775182724,-0.67640811204910278,0.35200637578964233,0.70644944906234741,0.17020778357982635,-0.58934491872787476,-0.67268216609954834,0.10659559816122055,-0.081527285277843475,1.2081218957901001,-0.61082589626312256,-0.71274453401565552,-0.33239182829856873,0.095107734203338623,0.36305209994316101,0.77242016792297363,0.18415738642215729,-0.028519397601485252,0.16713012754917145,2.1318457126617432,1.1457127332687378,-0.037539038807153702,0.05464046448469162,-3.2291581630706787,-0.199249267578125,0.61208504438400269,-0.1524060070514679,-0.62162470817565918,1.4405676126480103,-1.331634521484375,4.1758513450622559,-0.16828961670398712,-0.031442612409591675,-1.8872638940811157,-0.39911854267120361,0.16326603293418884,1.1609716415405273,1.7137172222137451,0.26220175623893738,-0.84378379583358765, -0.28452044725418091,-0.019371025264263153,0.18386688828468323,-0.46203941106796265,-0.078783094882965088,1.4742525815963745,0.072466380894184113,0.87342405319213867,-0.0118796331807971,0.096641622483730316,-0.018066324293613434,0.57136762142181396,0.23501218855381012,0.17062006890773773,-0.54962038993835449,0.41094613075256348,0.14754146337509155,1.2569921016693115,-0.5607181191444397,0.16266439855098724,-0.55248814821243286,1.7065014839172363,0.24396637082099915,0.096039630472660065,-0.052910327911376953,1.3742871284484863,0.054944358766078949,-0.66408467292785645,-0.66103917360305786,0.0039398563094437122,0.070524685084819794,-1.2922112941741943,-0.079004593193531036,0.1064382940530777,-0.053478825837373734,0.042640373110771179,-0.2974097728729248,1.3567072153091431,-1.3523327112197876,0.13839803636074066,0.20239713788032532,-1.0120744705200195,0.062699943780899048,-0.21825440227985382,0.6386483907699585,1.0542646646499634,-0.20927473902702332,-0.2139914333820343, 
  /* [0][1][][] */ -0.33577683568000793,-0.28052535653114319,-1.5404921770095825,-0.2995663583278656,-0.63582950830459595,1.0295064449310303,0.0077071548439562321,0.056361634284257889,0.074964411556720734,-0.59514719247817993,-0.11602922528982162,-1.9583141803741455,-0.34181872010231018,-0.24725449085235596,-0.82681548595428467,1.8996297121047974,0.21047377586364746,0.23210647702217102,3.5668835639953613,0.85599970817565918,-0.10752249509096146,4.0364151000976562,0.56999039649963379,0.60066384077072144,0.09100794792175293,-0.90671992301940918,-0.69159454107284546,0.12996393442153931,1.8829892873764038,-0.36098885536193848,0.27351155877113342,-3.2759945392608643,0.018714386969804764,-0.55956786870956421,-0.83712077140808105,-0.25643014907836914,-0.046989370137453079,-0.98461401462554932,3.116868257522583,0.31012031435966492,0.21158416569232941,1.9228984117507935,-0.14316417276859283,-0.080209061503410339,-0.65398329496383667,3.1703598499298096,0.3714165985584259,-0.82864338159561157, -1.2427788972854614,0.59326410293579102,1.458765983581543,2.2236106395721436,2.6864190101623535,-6.0466651916503906,-0.56431043148040771,-0.13049295544624329,-0.030102768912911415,-1.1620017290115356,-2.2405352592468262,-2.332751989364624,1.3913339376449585,-0.14647455513477325,-0.10616627335548401,0.51060819625854492,0.043827906250953674,-25.523994445800781,-2.476893424987793,-1.2133256196975708,0.4364733099937439,-0.35283416509628296,-0.28180217742919922,-0.68352603912353516,1.4296858310699463,-0.56559640169143677,2.0765228271484375,-0.82487905025482178,4.9678044319152832,1.2811599969863892,-0.28087112307548523,2.2103557586669922,-0.23637749254703522,-2.8229317665100098,1.9723583459854126,-2.4843862056732178,0.95923900604248047,-0.88698631525039673,-10.271231651306152,-2.0221986770629883,0.040838975459337234,1.6891354322433472,-0.64833515882492065,0.11424988508224487,-1.2830947637557983,-1.672292947769165,0.69719278812408447,3.5156142711639404, -0.16312766075134277,0.044835556298494339,0.026416236534714699,0.40363270044326782,0.83972686529159546,6.1255807876586914,-0.06119508296251297,0.75196492671966553,0.15976002812385559,0.057617437094449997,0.83255064487457275,-0.8927382230758667,-0.17524963617324829,-0.083341658115386963,-0.46294641494750977,-0.28629890084266663,0.16629382967948914,9.4331083297729492,0.052122544497251511,0.55208891630172729,-0.31338709592819214,-3.6481285095214844,0.53145724534988403,-0.21774086356163025,0.098116233944892883,2.5016582012176514,0.24382229149341583,0.12838014960289001,1.7427023649215698,0.30665776133537292,0.75741535425186157,0.67982923984527588,0.028648117557168007,0.30009943246841431,0.88088870048522949,0.23645496368408203,-0.22500067949295044,0.98347693681716919,3.7886514663696289,-0.15177997946739197,-0.0056544444523751736,1.1402502059936523,0.73141467571258545,-0.090794041752815247,-0.51303118467330933,-1.1744000911712646,0.34335619211196899,-0.087388962507247925, 
  /* [0][2][][] */ -0.28593212366104126,0.045323699712753296,-0.62419992685317993,-0.10901275277137756,-0.10611499100923538,-0.79003334045410156,0.083750985562801361,-0.17781174182891846,0.083001308143138885,0.13126708567142487,0.06592116504907608,0.81675219535827637,0.012987536378204823,-0.076187103986740112,0.44579815864562988,0.044794078916311264,0.019351454451680183,0.83484381437301636,1.713050365447998,0.11247161775827408,-0.22424748539924622,-0.25657299160957336,0.39161917567253113,0.1605023592710495,-0.020490732043981552,-0.83468514680862427,-0.27947649359703064,-1.0243803262710571,0.044999800622463226,-0.12464123219251633,-0.0081361401826143265,-1.1284139156341553,-0.0068809227086603642,1.2114783525466919,-0.12849549949169159,-0.33968326449394226,-0.71184200048446655,0.08159010112285614,-0.94293653964996338,0.068292662501335144,0.026256151497364044,-0.26008591055870056,-0.28819671273231506,-0.3874208927154541,-0.1126079261302948,0.35124096274375916,-0.3618302047252655,-0.99423915147781372, -0.095024026930332184,-0.62072396278381348,0.70632129907608032,0.015124125406146049,-1.7272695302963257,-1.1917524337768555,-0.41528663039207458,-1.3263061046600342,0.28064212203025818,0.55417782068252563,0.77305507659912109,0.95018869638442993,-0.0076466803438961506,-0.23644575476646423,0.084141477942466736,0.13285496830940247,0.11958074569702148,20.794336318969727,-0.7266048789024353,-0.14320611953735352,-0.31191802024841309,-0.00044313952093943954,0.15491935610771179,-0.17946475744247437,0.013177451677620411,-0.74738109111785889,-1.1841028928756714,-1.2291220426559448,-0.64357203245162964,-0.30549457669258118,0.54792779684066772,0.74634855985641479,-0.11468205600976944,1.164497971534729,-1.084439754486084,-0.45633965730667114,0.32977020740509033,-1.2128027677536011,2.3843593597412109,0.65391522645950317,-0.36241960525512695,-0.24652735888957977,-0.75930595397949219,0.73942309617996216,0.3188616931438446,0.0019517191685736179,0.29704576730728149,-1.272369384765625, 0.19041667878627777,-0.13322477042675018,0.31931266188621521,-0.06588214635848999,-0.89532029628753662,1.008836030960083,0.092385292053222656,-1.3621678352355957,0.02247946709394455,-0.12444518506526947,-0.3851533830165863,0.45809477567672729,0.16658398509025574,0.095724925398826599,0.61232632398605347,-1.9060375690460205,0.079824432730674744,-3.7011148929595947,-0.48809292912483215,-0.10529626905918121,-0.28314775228500366,0.31174805760383606,0.13300712406635284,-0.01211449783295393,-0.026355423033237457,0.71383130550384521,-0.53324496746063232,0.21087585389614105,-0.17216283082962036,-0.241326704621315,0.09248071163892746,0.27402254939079285,-0.036964539438486099,1.180545449256897,-0.68797838687896729,-0.12722600996494293,-1.0998615026473999,0.99976271390914917,-1.8316649198532104,0.39740854501724243,0.0048741935752332211,-0.35854482650756836,0.19338633120059967,0.28586935997009277,-0.23916929960250854,-0.22702822089195251,-0.45002895593643188,-0.51111078262329102, 
};
const TfArray<4, int> tensor_dimension19 = { 4, { 1,3,3,48 } };
const MODEL_SECTION(EI_MODEL_SECTION) ALIGN(16) float tensor_data20[8] = { 1.5699241161346436, -2.0358116626739502, -0.14458271861076355, 0.8228142261505127, 1.0229452848434448, -0.8428465723991394, 0.39833903312683105, 0.45721319317817688, };
const TfArray<1, int> tensor_dimension20 = { 1, { 8 } };
const MODEL_SECTION(EI_MODEL_SECTION) ALIGN(16) float tensor_data21[1*3*3*48] = { 
  /* [0][0][][] */ -0.11943992972373962,-0.22470515966415405,-0.11357184499502182,-0.31286928057670593,-0.19113050401210785,0.09000551700592041,-0.21123602986335754,-0.32105362415313721,-0.081563308835029602,0.14434340596199036,0.12469206750392914,-0.2773667573928833,-0.12502345442771912,0.019718609750270844,-0.23513238131999969,0.16800262033939362,0.10275822877883911,-0.19670405983924866,-0.1282007098197937,0.794136643409729,0.10832332074642181,1.5007854700088501,-0.15924146771430969,0.41535502672195435,-0.096981272101402283,-0.14767417311668396,0.12434976547956467,0.40077391266822815,0.089745394885540009,-0.32633551955223083,1.4128680229187012,0.30141764879226685,0.15882542729377747,-0.1308039128780365,-0.27597269415855408,-0.19633561372756958,-0.41647636890411377,-0.2503294050693512,0.94745290279388428,0.16066165268421173,0.083487562835216522,-0.037037421017885208,0.086201243102550507,0.23201575875282288,1.1471792459487915,0.38037526607513428,-0.10960739850997925,-0.12441948056221008, -0.18405140936374664,-0.29668939113616943,-0.17776162922382355,-0.43881821632385254,-0.51839488744735718,0.075257979333400726,-0.31702956557273865,-0.37172660231590271,-0.087037578225135803,0.16290643811225891,0.19395239651203156,-0.28580719232559204,-0.27718633413314819,0.11874989420175552,-0.28501313924789429,0.20517978072166443,0.11722871661186218,-0.28191038966178894,-0.21952229738235474,-0.046828523278236389,0.21800988912582397,1.7193995714187622,0.37638729810714722,0.55714714527130127,-0.13083286583423615,-0.26264694333076477,0.24785377085208893,0.54641628265380859,0.14895272254943848,-0.46009364724159241,1.5764425992965698,0.49106544256210327,0.26458060741424561,-0.27173799276351929,-0.308145672082901,-0.31782260537147522,-0.35705500841140747,-0.33773961663246155,0.98444175720214844,0.27589452266693115,-0.66075146198272705,-0.073834262788295746,0.16663837432861328,0.24773271381855011,1.6289746761322021,0.67944496870040894,-0.21488916873931885,-0.29707169532775879, -0.065617069602012634,-0.1325189471244812,-0.1556689590215683,-0.22370749711990356,-0.3547002375125885,0.076013356447219849,-0.23999880254268646,-0.25481408834457397,-0.062223013490438461,0.1295650452375412,0.11589272320270538,-0.13096347451210022,-0.089898787438869476,0.14389999210834503,-0.16418606042861938,0.1148826852440834,0.057701680809259415,-0.10805363208055496,-0.04808700829744339,-0.35313558578491211,0.1247032955288887,-3.281343936920166,-0.19908508658409119,0.11647411435842514,-0.0567433200776577,-0.096306517720222473,0.089227259159088135,0.16130179166793823,0.079726539552211761,-0.21844089031219482,0.77448117733001709,0.15128608047962189,0.15687952935695648,-0.088081076741218567,-0.219964399933815,-0.12779457867145538,-0.23076547682285309,-0.14721798896789551,0.11078368127346039,0.08409564197063446,-0.198076993227005,-0.042878773063421249,0.10726005584001541,0.11631873250007629,1.578038215637207,0.26609739661216736,-0.11221294105052948,-0.085964888334274292, 
  /* [0][1][][] */ -0.13364996016025543,-0.23399597406387329,-0.19677762687206268,-0.36785751581192017,-0.23252420127391815,-0.053463943302631378,-0.31589993834495544,-0.38279786705970764,-0.13197536766529083,0.20911677181720734,0.19767375290393829,-0.28842854499816895,-0.28481504321098328,0.10228597372770309,-0.245640829205513,0.18850691616535187,0.12801536917686462,-0.21818649768829346,-0.13454343378543854,0.69409829378128052,0.18206861615180969,1.9973459243774414,-0.26212403178215027,0.50276833772659302,-0.13660059869289398,-0.19016304612159729,0.17997254431247711,0.58642935752868652,0.132520392537117,-0.37421461939811707,1.2972527742385864,0.37519237399101257,0.25296488404273987,-0.29767924547195435,-0.36113688349723816,-0.23922757804393768,-0.39772096276283264,-0.36363610625267029,0.97957336902618408,0.27697980403900146,-0.60162383317947388,-0.088855452835559845,0.23818539083003998,0.25852841138839722,1.9463186264038086,0.56385445594787598,-0.16479653120040894,-0.18715928494930267, -0.25595292448997498,-0.29288554191589355,-0.30484822392463684,-0.56479346752166748,-0.43169978260993958,-0.37203508615493774,-0.47601154446601868,-0.48182839155197144,-0.18676847219467163,0.27988356351852417,0.33048439025878906,-0.31700724363327026,-0.5947883129119873,0.17273183166980743,-0.19508074223995209,0.28555247187614441,0.15236519277095795,-0.29803869128227234,-0.22757072746753693,-0.45975115895271301,0.29623216390609741,2.0451705455780029,0.5316731333732605,0.63719457387924194,-0.1597796231508255,-0.3485431969165802,0.27934038639068604,0.67053180932998657,0.20649720728397369,-0.64209330081939697,1.6738317012786865,0.74479770660400391,0.45654365420341492,-0.42332375049591064,-0.40669727325439453,-0.53473174571990967,-0.35604768991470337,-0.54843401908874512,0.88636857271194458,0.419268399477005,-1.07118821144104,-0.16795513033866882,0.42093735933303833,0.43204483389854431,2.7957448959350586,0.58326083421707153,-0.35659071803092957,-0.38235130906105042, -0.095527276396751404,-0.11025504022836685,-0.23855039477348328,-0.37509211897850037,-0.35108447074890137,-0.33689606189727783,-0.32165858149528503,-0.36540594696998596,-0.12239162623882294,0.14416223764419556,0.1580960601568222,-0.21393285691738129,-0.26813188195228577,0.16512128710746765,-0.097529336810112,0.12587764859199524,0.12269443273544312,-0.13328729569911957,-0.095163188874721527,-0.91024255752563477,0.18678551912307739,-3.1848478317260742,-0.26659628748893738,0.17180651426315308,-0.036905631422996521,-0.12784503400325775,0.087016254663467407,0.17614005506038666,0.12537847459316254,-0.31181305646896362,0.87080609798431396,0.34945213794708252,0.25088545680046082,-0.31479480862617493,-0.25676903128623962,-0.219442218542099,-0.27278932929039001,-0.26391774415969849,0.40391102433204651,0.1786980926990509,-0.71714234352111816,-0.088597811758518219,0.25725221633911133,0.26276946067810059,0.75362551212310791,0.13699351251125336,-0.15172621607780457,-0.1667160838842392, 
  /* [0][2][][] */ -0.099317550659179688,-0.097060926258563995,-0.09180925041437149,-0.054277915507555008,-0.24149990081787109,-0.060014095157384872,-0.20365458726882935,-0.1970716267824173,-0.092615380883216858,0.15921784937381744,0.095383331179618835,-0.098544932901859283,-0.13164405524730682,0.014479761943221092,-0.16587162017822266,0.080742433667182922,0.053643424063920975,-0.091419212520122528,-0.065235771238803864,0.093774259090423584,0.12147051841020584,0.47579148411750793,-0.056790154427289963,0.1625639945268631,-0.072384089231491089,-0.069154456257820129,0.067529655992984772,0.34407317638397217,0.055967476218938828,-0.036752689629793167,0.5350378155708313,0.16206973791122437,0.1623242199420929,-0.15092600882053375,-0.21499741077423096,-0.19850040972232819,-0.18861865997314453,-0.11318570375442505,0.095666013658046722,0.13765163719654083,-0.31796354055404663,-0.041760336607694626,0.13966178894042969,-0.0039261765778064728,0.4012543261051178,0.18980275094509125,-0.14682979881763458,-0.12682534754276276, -0.15777362883090973,-0.065860778093338013,-0.16648942232131958,-0.23330721259117126,-0.26097920536994934,-0.40100297331809998,-0.26477324962615967,-0.21404795348644257,-0.11976700276136398,0.19952118396759033,0.12076018005609512,-0.13010416924953461,-0.24408960342407227,0.065433375537395477,-0.16526749730110168,0.041713561862707138,0.080365128815174103,-0.06390756368637085,-0.094037845730781555,-0.50641775131225586,0.1296236664056778,0.044263344258069992,0.21328772604465485,0.02971482090651989,-0.086838118731975555,-0.15327084064483643,0.1105530634522438,0.40173071622848511,0.10288271307945251,-0.24732577800750732,0.40123865008354187,0.26924034953117371,0.20985247194766998,-0.27363631129264832,-0.21706125140190125,-0.36314937472343445,-0.21054314076900482,-0.21034671366214752,0.091728813946247101,0.21699541807174683,-0.5313866138458252,-0.079128511250019073,0.20284031331539154,0.13856048882007599,0.89050817489624023,0.12682874500751495,-0.22469426691532135,-0.20468489825725555, -0.088033251464366913,0.034441038966178894,-0.11187785118818283,-0.24696734547615051,-0.12033490091562271,-0.34488168358802795,-0.23747548460960388,-0.20963029563426971,-0.060513965785503387,0.11811637133359909,0.071979396045207977,-0.12407723814249039,-0.11337163299322128,0.072396852076053619,0.03275587409734726,0.029853027313947678,0.062929667532444,-0.028195442631840706,-0.074160076677799225,-0.67370736598968506,0.059900145977735519,-1.187462329864502,-0.066691853106021881,0.031301330775022507,-0.0095325158908963203,-0.070284515619277954,0.025440899655222893,0.20216785371303558,0.045700959861278534,-0.10260681807994843,0.10040908306837082,0.1326521635055542,0.090387798845767975,-0.13552765548229218,-0.24442893266677856,-0.21362845599651337,-0.091843031346797943,-0.12187689542770386,0.056374736130237579,0.051164120435714722,-0.26240971684455872,-0.048152152448892593,0.11092816293239594,0.068945914506912231,0.35728201270103455,0.0933041051030159,-0.038375772535800934,-0.12899519503116608, 
};
const TfArray<4, int> tensor_dimension21 = { 4, { 1,3,3,48 } };
const MODEL_SECTION(EI_MODEL_SECTION) ALIGN(16) float tensor_data22[8] = { 3.9392044544219971, -0.71589750051498413, -0.28082272410392761, 0.45200574398040771, 0.24760948121547699, -2.2144999504089355, -0.72270041704177856, -1.95943284034729, };
const TfArray<1, int> tensor_dimension22 = { 1, { 8 } };
const MODEL_SECTION(EI_MODEL_SECTION) ALIGN(16) float tensor_data23[1*3*3*48] = { 
  /* [0][0][][] */ -1.5935962200164795,-0.11040768027305603,0.15025852620601654,-0.10215942561626434,-0.19235199689865112,0.2061886191368103,-1.1138087511062622,-0.0019795806147158146,-0.22579000890254974,1.6557725667953491,0.31290456652641296,0.072580456733703613,-0.15132914483547211,0.72579950094223022,0.10272295027971268,0.31996327638626099,0.25014156103134155,0.17351202666759491,0.55074644088745117,-0.37189704179763794,-0.63176155090332031,-0.10467953979969025,0.019314272329211235,1.1789789199829102,-0.23999553918838501,0.02914712205529213,-0.016531750559806824,-1.0391474962234497,0.69185829162597656,-1.3399721384048462,0.7001645565032959,1.2396878004074097,-0.13202592730522156,0.99953657388687134,0.66098463535308838,-0.3679339587688446,0.3097115159034729,-0.83814096450805664,-0.30519568920135498,1.2944598197937012,-0.84545594453811646,0.30267706513404846,-0.10725963860750198,-0.096019662916660309,-0.27063062787055969,0.19071365892887115,0.055087193846702576,-0.27021217346191406, 0.17782518267631531,-0.90545952320098877,-0.0037426974158734083,0.19207289814949036,-0.069220840930938721,0.32804188132286072,-1.1132363080978394,-0.092879727482795715,0.47536838054656982,0.55964452028274536,0.62333345413208008,0.6364397406578064,-0.14627479016780853,-0.64064860343933105,-0.93149358034133911,-0.4703611433506012,0.049504224210977554,-0.44255736470222473,2.901324987411499,0.73091757297515869,0.063065074384212494,0.60228848457336426,-0.38258877396583557,0.52458161115646362,-0.51755404472351074,-0.05418853834271431,0.24568389356136322,-1.8501585721969604,0.32662889361381531,-0.81543099880218506,-0.2872776985168457,-3.4243066310882568,-0.29821944236755371,0.79071754217147827,-0.46971452236175537,-1.1175342798233032,-0.31869485974311829,-0.061477702111005783,0.059480171650648117,0.92625051736831665,1.6078191995620728,-0.051521416753530502,-0.13794691860675812,2.517662525177002,-0.020451540127396584,-1.9699932336807251,0.078935973346233368,-0.6268618106842041, -1.9770321846008301,0.36724048852920532,0.13811895251274109,0.0059169256128370762,-0.12693168222904205,0.33845162391662598,-0.68214786052703857,-0.023758703842759132,-0.36425912380218506,1.4164259433746338,-0.075523972511291504,-0.13012385368347168,-0.064180493354797363,0.66652780771255493,0.23838672041893005,0.41949525475502014,-0.22422303259372711,-0.05012594535946846,0.40098786354064941,-0.63057416677474976,-0.56207376718521118,-0.20811711251735687,0.2137247622013092,0.49780794978141785,-0.018837552517652512,-0.12193494290113449,0.46224981546401978,-0.71206873655319214,-0.80754619836807251,-1.5327070951461792,0.3787289559841156,-0.15386801958084106,0.054089896380901337,0.52677977085113525,-0.73487561941146851,-0.32882353663444519,0.27422794699668884,-0.64794331789016724,0.097837358713150024,0.89892637729644775,-0.70320051908493042,0.24081264436244965,-0.14016200602054596,0.11263950169086456,-0.1056770458817482,0.25667464733123779,0.12174411863088608,1.0786807537078857, 
  /* [0][1][][] */ 1.0443354845046997,-0.42786520719528198,0.10462424904108047,-0.012687125243246555,-0.14399310946464539,0.038961321115493774,0.40499502420425415,-0.22467321157455444,-1.4486643075942993,0.79574227333068848,0.17267888784408569,0.35297653079032898,-0.21942095458507538,-0.29932579398155212,-0.79186075925827026,1.0281510353088379,-0.21304309368133545,0.055770576000213623,1.5679255723953247,1.1925005912780762,-0.043487768620252609,0.5305171012878418,-0.5614553689956665,-0.12988086044788361,-0.23533172905445099,-0.54884612560272217,-0.34525159001350403,-0.95251184701919556,3.109121561050415,0.27950513362884521,0.31052851676940918,3.3057401180267334,-2.4021682739257812,0.085870154201984406,1.6841551065444946,-0.034258462488651276,-0.061728160828351974,0.26124852895736694,-1.1331256628036499,-1.2665877342224121,0.61571288108825684,-0.10363291203975677,0.16441749036312103,0.17559763789176941,-2.6592710018157959,0.77243304252624512,0.047391954809427261,-1.1228405237197876, 1.8524185419082642,-0.53113806247711182,-0.32527732849121094,-0.81658315658569336,0.079641051590442657,1.9458873271942139,-0.090332627296447754,1.8865684270858765,-2.8449690341949463,-1.3438471555709839,-0.12778575718402863,1.2297869920730591,-0.18586383759975433,-1.1052672863006592,-1.3043051958084106,-1.120644211769104,-0.070724382996559143,-1.16650390625,-1.6156363487243652,0.87074297666549683,0.62813752889633179,1.2038904428482056,-0.39377430081367493,2.0024886131286621,-0.88050144910812378,0.37022066116333008,-3.4082639217376709,1.4453537464141846,-1.3454294204711914,-0.6309933066368103,-1.1372361183166504,-2.8435795307159424,0.34941378235816956,4.4870882034301758,-1.6493889093399048,0.82005071640014648,-1.7591967582702637,-0.38409709930419922,1.0843218564987183,-0.5049014687538147,-0.66438859701156616,0.75538772344589233,-1.4692142009735107,-1.529752254486084,2.0171000957489014,1.3468359708786011,-1.4560408592224121,-1.697216272354126, 0.86566543579101562,-0.19925327599048615,0.24083451926708221,-0.052268955856561661,-0.10364221781492233,-0.54593712091445923,0.040345009416341782,-0.3656628429889679,-0.90242218971252441,0.35141530632972717,0.0082070734351873398,-0.18855981528759003,-0.061471104621887207,-0.75054061412811279,-0.79259276390075684,0.8431437611579895,-0.85828614234924316,-0.38059598207473755,0.76120114326477051,0.99001413583755493,-0.18387523293495178,0.58528786897659302,-0.12249001115560532,-2.7924084663391113,0.082003377377986908,-0.41751429438591003,4.0330185890197754,-0.0081781568005681038,-1.1436749696731567,1.3394404649734497,-0.47338190674781799,2.6145315170288086,2.3978791236877441,-1.5180827379226685,-0.74047720432281494,0.10271569341421127,-0.090520128607749939,-0.0031032487750053406,-0.12483738362789154,-0.65750265121459961,0.32784965634346008,-0.15641006827354431,-0.11199243366718292,-0.24201439321041107,-0.03303961455821991,0.57396376132965088,-0.16636264324188232,2.7765865325927734, 
  /* [0][2][][] */ -1.5861293077468872,-0.30747485160827637,0.090845607221126556,-0.17817853391170502,-0.05075489729642868,0.2611691951751709,0.47853538393974304,0.0014432439347729087,1.7535083293914795,0.75914633274078369,0.29027667641639709,0.10379719734191895,-0.16726964712142944,0.69628125429153442,0.34868347644805908,0.022089395672082901,0.41434758901596069,0.45491555333137512,0.25013077259063721,-0.47147658467292786,-0.3293149471282959,-0.19340546429157257,0.096154287457466125,0.84909659624099731,-0.27673810720443726,-0.098366782069206238,0.061944719403982162,0.15205106139183044,0.26139688491821289,0.39123484492301941,0.65004146099090576,0.065030187368392944,0.10417413711547852,0.62405359745025635,1.4694873094558716,0.07669549435377121,0.29250878095626831,-0.24511393904685974,-0.50720202922821045,-0.096166476607322693,-0.54914408922195435,0.15523311495780945,0.028959877789020538,-0.27609458565711975,-0.35946714878082275,-0.075233094394207001,-0.091621562838554382,0.3079276978969574, -1.1940275430679321,-0.93643367290496826,0.16399034857749939,-0.35542476177215576,-0.088233046233654022,-0.16441087424755096,0.9474409818649292,-0.024549102410674095,2.0091359615325928,0.43740540742874146,0.43565723299980164,-0.3791155219078064,0.2378523200750351,-0.85621964931488037,-0.7586287260055542,-0.12385223060846329,-0.2268659919500351,0.3860725462436676,-3.0985031127929688,0.056418441236019135,-0.42219021916389465,0.046277269721031189,-0.72145217657089233,-0.1901257187128067,0.056634295731782913,-0.67859649658203125,0.17519161105155945,0.4053475558757782,0.17193318903446198,0.83146971464157104,0.076795659959316254,-2.5172660350799561,0.07145516574382782,-1.7365696430206299,-0.057322915643453598,0.17378267645835876,-0.18273334205150604,0.40584877133369446,0.36827319860458374,-0.72354412078857422,0.033141538500785828,0.11395931988954544,0.29782098531723022,-0.97166341543197632,0.34837976098060608,-0.30690264701843262,0.030197748914361,0.37395554780960083, -1.1183527708053589,-0.062034707516431808,0.096425808966159821,-0.057859104126691818,-0.10381335020065308,0.66549563407897949,0.39084422588348389,-0.04271329939365387,1.0023750066757202,0.2212463766336441,0.0098021682351827621,0.18810813128948212,-0.31856846809387207,0.49524345993995667,0.32054579257965088,0.049770936369895935,-0.32550930976867676,0.5231134295463562,-0.0086773931980133057,-0.59084790945053101,-0.24621745944023132,-0.20352232456207275,0.40216231346130371,-1.4040833711624146,-0.14556977152824402,-0.20092353224754333,0.54953312873840332,0.36220511794090271,-0.29033264517784119,0.40195417404174805,0.19526940584182739,-1.2679665088653564,0.14199841022491455,0.83324712514877319,-0.4671909511089325,0.072477124631404877,0.33644714951515198,-0.26436164975166321,-0.077280737459659576,-0.48427549004554749,-0.39521458745002747,0.21608373522758484,0.2139536440372467,-0.11675813049077988,-0.3179309070110321,0.1477823406457901,0.11842283606529236,0.036733217537403107, 
};
const TfArray<4, int> tensor_dimension23 = { 4, { 1,3,3,48 } };
const MODEL_SECTION(EI_MODEL_SECTION) ALIGN(16) float tensor_data24[8] = { 1.1353216171264648, 0.46928030252456665, 0.96012461185455322, -0.45015937089920044, -1.1918693780899048, 1.2226411104202271, 0.26520097255706787, 1.3631653785705566, };
const TfArray<1, int> tensor_dimension24 = { 1, { 8 } };
const MODEL_SECTION(EI_MODEL_SECTION) ALIGN(16) float tensor_data25[1*3*3*48] = { 
  /* [0][0][][] */ 0.20142239332199097,0.94372355937957764,0.38235694169998169,0.28385913372039795,-0.11685405671596527,-1.4562562704086304,0.38949915766716003,0.51971578598022461,-0.77295416593551636,-0.040501337498426437,-0.15340816974639893,0.47397243976593018,0.46887782216072083,0.3057885468006134,-0.011305185034871101,0.070402547717094421,1.4441987276077271,-0.79208487272262573,0.28155785799026489,0.36227688193321228,0.34705984592437744,-0.043869830667972565,0.029511641710996628,0.15454211831092834,-0.26980099081993103,-0.9996526837348938,0.6165473461151123,0.096345916390419006,-0.28190088272094727,-0.2482520192861557,0.13178317248821259,0.23289152979850769,0.20499065518379211,-1.2856305837631226,0.051043298095464706,0.11922754347324371,-0.14671295881271362,0.11958009004592896,-0.32283872365951538,-0.49874189496040344,-0.069829300045967102,-1.4690226316452026,-0.30860006809234619,-0.25145158171653748,0.087012477219104767,-0.39102253317832947,0.38242405652999878,-0.77470457553863525, 0.23705361783504486,0.29138115048408508,0.542277991771698,-0.86433476209640503,0.25440427660942078,1.3234918117523193,0.46321603655815125,-1.2553035020828247,-1.3092865943908691,-0.26798772811889648,-0.054005958139896393,0.8991280198097229,0.080705545842647552,-1.0291182994842529,-1.3240301609039307,0.35080155730247498,-0.28406569361686707,1.5653579235076904,0.19411052763462067,0.32055935263633728,0.30304014682769775,0.98841136693954468,0.32850682735443115,0.73803222179412842,0.53820037841796875,-0.70324307680130005,-0.00094161357264965773,-1.4442622661590576,-1.0127146244049072,-0.063556626439094543,-0.61755383014678955,0.53910773992538452,0.16628625988960266,-1.3355576992034912,-1.1277470588684082,0.78703141212463379,0.12885482609272003,-0.34959658980369568,-1.5621906518936157,-0.40304070711135864,0.13316972553730011,1.5516490936279297,-0.65987712144851685,0.56471043825149536,-0.36282181739807129,-0.27226653695106506,0.52449929714202881,0.16798530519008636, 0.13556034862995148,0.042812824249267578,0.26071155071258545,-0.69658750295639038,-0.11475202441215515,-1.1772021055221558,0.38753151893615723,0.31889063119888306,-0.74611788988113403,0.0072219083085656166,0.017000105232000351,0.27307587862014771,0.28555521368980408,0.53513967990875244,0.51810836791992188,0.033760424703359604,-1.5811798572540283,0.208100825548172,0.20707058906555176,0.53695958852767944,-0.084462948143482208,-0.34542539715766907,-0.20016640424728394,-0.28419724106788635,-0.23835732042789459,-0.92018800973892212,-0.33152180910110474,-0.41198080778121948,-0.32234218716621399,-0.25725677609443665,0.0014498719247058034,0.11408685892820358,0.43803700804710388,-0.66803383827209473,0.40154296159744263,0.20571017265319824,-0.31245464086532593,-0.21896816790103912,-0.11378754675388336,-0.36116927862167358,0.031448632478713989,-0.46255198121070862,0.93246746063232422,-0.49378526210784912,-0.021648341789841652,-0.46170616149902344,0.095979981124401093,-0.32982426881790161, 
  /* [0][1][][] */ 0.22887328267097473,0.17474423348903656,0.18780438601970673,0.5218239426612854,0.25814184546470642,1.4602141380310059,0.073784321546554565,-2.7308037281036377,1.1012518405914307,-0.44566041231155396,-0.57485067844390869,-0.38269925117492676,0.1035873219370842,0.91918611526489258,-0.59380584955215454,0.96382313966751099,-3.8743886947631836,1.3592358827590942,0.20631499588489532,0.41149204969406128,0.1114368662238121,1.2634882926940918,0.28844442963600159,-1.3018761873245239,-0.17635132372379303,1.4367529153823853,0.86389631032943726,0.21739932894706726,0.33363166451454163,-0.13000917434692383,-0.54234588146209717,0.22798742353916168,0.43939915299415588,1.3530523777008057,-1.0567992925643921,0.34049573540687561,-0.38302233815193176,-0.0072559402324259281,-0.15918996930122375,-0.2604634165763855,-0.25354546308517456,-0.87166225910186768,0.16241055727005005,-1.8734976053237915,0.44897317886352539,-0.074701286852359772,0.23589710891246796,-0.086654931306838989, 0.01005714014172554,1.7009716033935547,-1.1374300718307495,0.75134247541427612,0.67282170057296753,1.3681139945983887,-1.2392522096633911,0.29630908370018005,1.2320647239685059,-0.043518897145986557,-0.19172564148902893,0.66214609146118164,-1.181389331817627,2.5264089107513428,-0.26870548725128174,0.12746025621891022,1.3147311210632324,-2.0454492568969727,-0.40963545441627502,0.13423442840576172,0.70311415195465088,0.39937344193458557,0.41005226969718933,-3.551253080368042,-0.53731274604797363,1.1641248464584351,-0.234235018491745,-0.018210778012871742,-0.024331372231245041,-0.074091993272304535,0.18369290232658386,-0.12345755100250244,0.75551575422286987,-0.47174930572509766,1.6604073047637939,-0.42331838607788086,0.51221024990081787,-0.48483958840370178,2.1230623722076416,0.44979661703109741,1.4571868181228638,0.86312353610992432,-1.0120680332183838,-0.056198537349700928,1.1447509527206421,0.14718222618103027,-0.67416185140609741,0.01281342376023531, 0.097776569426059723,-0.018465008586645126,0.074826359748840332,-1.0995990037918091,0.34639433026313782,1.0269701480865479,0.18821704387664795,-1.9041285514831543,1.4060269594192505,-0.15890686213970184,-0.59913837909698486,-0.091834016144275665,0.12875726819038391,0.67016506195068359,-0.54386579990386963,0.76356899738311768,2.4461414813995361,-0.11687549948692322,0.059309601783752441,0.73284459114074707,0.19021600484848022,-1.4967999458312988,0.11838843673467636,3.0927832126617432,-0.41808041930198669,1.516855001449585,-0.43260398507118225,-0.19632446765899658,0.42458793520927429,-0.067157946527004242,-0.25570321083068848,0.29734411835670471,-0.027724893763661385,1.1785438060760498,1.7554500102996826,0.26275402307510376,-0.33702203631401062,-0.12575149536132812,-1.0732837915420532,-0.16202068328857422,-0.27451297640800476,-0.39210641384124756,1.0083795785903931,2.7825942039489746,1.1736463308334351,-0.096547305583953857,0.35739198327064514,0.011025683023035526, 
  /* [0][2][][] */ 0.060301944613456726,0.55314373970031738,0.2732391357421875,0.48642522096633911,-0.05330444872379303,-0.0077562835067510605,0.31361910700798035,0.68822407722473145,-0.12073845416307449,-0.073458649218082428,-0.10140497982501984,-0.084168039262294769,0.37973982095718384,-1.3435930013656616,0.48141440749168396,-0.46441909670829773,-0.17684930562973022,0.43705758452415466,0.27787920832633972,-0.25328606367111206,0.59252995252609253,0.014873730018734932,0.055904652923345566,-1.8456994295120239,-0.697986900806427,-0.96689414978027344,1.2629352807998657,1.0908126831054688,-0.073554903268814087,-0.28508689999580383,-0.27565240859985352,0.40012243390083313,0.27941632270812988,0.77471321821212769,-0.26134032011032104,0.0089288158342242241,-0.35076090693473816,0.061942342668771744,-0.063431218266487122,-0.009347609244287014,-0.25359642505645752,-1.0974889993667603,0.23442032933235168,-0.14126007258892059,0.14693161845207214,-0.059104647487401962,0.17850036919116974,-0.38903787732124329, 0.08710981160402298,0.15290363132953644,0.036027807742357254,0.054755996912717819,-0.084933198988437653,-2.5038497447967529,0.038324933499097824,-1.8981188535690308,-0.27499616146087646,-0.10073088854551315,-0.057252116501331329,-0.18654784560203552,-0.084255009889602661,-1.2039819955825806,-0.14129261672496796,0.34628051519393921,0.2286621481180191,-0.8224291205406189,0.033715814352035522,0.84424012899398804,0.64602667093276978,0.86352324485778809,0.24851320683956146,0.4777987003326416,0.093832157552242279,-0.60590898990631104,-0.36441788077354431,0.56169480085372925,-1.1814708709716797,-0.030248120427131653,-0.36818072199821472,0.15272587537765503,0.082630999386310577,2.0310146808624268,-0.76736694574356079,0.035366594791412354,-0.53040617704391479,-0.44148585200309753,0.32982474565505981,-0.034951936453580856,-1.2099064588546753,0.97660994529724121,-0.15382283926010132,0.40220093727111816,-0.28399384021759033,-0.24039028584957123,0.46287611126899719,-0.12357611209154129, 0.028048999607563019,0.060696538537740707,0.23108832538127899,-0.53306287527084351,0.0023850277066230774,-0.14332211017608643,0.45150077342987061,0.79522675275802612,-0.31494149565696716,0.0011881914688274264,0.093834422528743744,-0.012868067249655724,0.30848661065101624,-1.2094258069992065,0.60519421100616455,-0.21427004039287567,-0.022900635376572609,-0.37958136200904846,0.1544748991727829,-0.83160966634750366,0.12100447714328766,-0.6739046573638916,-0.19587863981723785,1.5873804092407227,-0.47344204783439636,-0.9789014458656311,-0.78491616249084473,0.34405672550201416,-0.18438009917736053,-0.36208981275558472,0.091351419687271118,0.26822012662887573,0.32025903463363647,-0.33971419930458069,-0.14674702286720276,0.16314218938350677,-0.62595969438552856,-0.24243548512458801,-0.56231850385665894,-0.10864025354385376,-0.30150705575942993,-0.19917505979537964,-0.061079710721969604,0.28361040353775024,-0.03996003046631813,0.060003321617841721,-0.11629388481378555,-0.3801606297492981, 
};
const TfArray<4, int> tensor_dimension25 = { 4, { 1,3,3,48 } };
const MODEL_SECTION(EI_MODEL_SECTION) ALIGN(16) float tensor_data26[8] = { -0.38333848118782043, -0.014260111376643181, -1.0222406387329102, 1.0258934497833252, 0.89245074987411499, -0.083421871066093445, 1.5429742336273193, 0.36686131358146667, };
const TfArray<1, int> tensor_dimension26 = { 1, { 8 } };
const MODEL_SECTION(EI_MODEL_SECTION) ALIGN(8) float tensor_data27[2] = { 8.94683837890625, -8.9756851196289062, };
const TfArray<1, int> tensor_dimension27 = { 1, { 2 } };
const MODEL_SECTION(EI_MODEL_SECTION) ALIGN(16) float tensor_data28[8*3*3*3] = { 
  /* [0][0][][] */ 0.21018293499946594,-0.1000283807516098,0.28214281797409058, 0.18633145093917847,-0.58866733312606812,0.70022767782211304, 0.27628281712532043,-0.58916103839874268,0.47796642780303955, 
  /* [0][1][][] */ 0.92241299152374268,0.65937632322311401,0.61017447710037231, 1.5329897403717041,0.38882386684417725,1.3614891767501831, 0.54972344636917114,-0.81670039892196655,0.88328802585601807, 
  /* [0][2][][] */ -0.5162157416343689,-2.2279653549194336,-0.32416552305221558, -0.72437393665313721,-3.0476155281066895,-0.041213549673557281, -0.21210931241512299,-1.3529430627822876,0.38987413048744202, 
  /* [1][0][][] */ 0.72659438848495483,1.8898687362670898,0.56751835346221924, 0.088249057531356812,0.18272891640663147,-0.1081555113196373, -0.85249853134155273,-1.8022956848144531,-0.73149442672729492, 
  /* [1][1][][] */ 1.3060997724533081,3.0773918628692627,0.94966351985931396, 0.018495606258511543,-0.030711058527231216,-0.13319268822669983, -1.438677191734314,-3.2730319499969482,-1.0536496639251709, 
  /* [1][2][][] */ 0.70430260896682739,1.1084277629852295,0.23279139399528503, 0.062896937131881714,-0.079290449619293213,-0.058682337403297424, -0.88118439912796021,-1.4029757976531982,-0.13819554448127747, 
  /* [2][0][][] */ 1.1624026298522949,2.4614343643188477,0.30487737059593201, 1.4467651844024658,3.3973512649536133,0.35622164607048035, 0.46530166268348694,1.1607357263565063,-0.008612719364464283, 
  /* [2][1][][] */ -1.227117657661438,-2.1969733238220215,-0.73054343461990356, -2.1268241405487061,-2.4583680629730225,-1.003448486328125, -0.78699642419815063,-0.13604271411895752,-0.52764004468917847, 
  /* [2][2][][] */ 0.022605037316679955,0.29399877786636353,0.18990227580070496, 0.13816286623477936,0.45153790712356567,0.0045613618567585945, 0.041839517652988434,0.3205859363079071,-0.15974000096321106, 
  /* [3][0][][] */ 0.38793516159057617,-0.28863167762756348,-0.16384263336658478, 0.68367111682891846,-0.33444720506668091,-0.37264537811279297, 0.25783881545066833,-0.16260266304016113,-0.13393256068229675, 
  /* [3][1][][] */ 0.72598850727081299,-0.48108822107315063,-0.32873642444610596, 1.1389994621276855,-0.48357361555099487,-0.67134743928909302, 0.52124875783920288,-0.25970789790153503,-0.27474763989448547, 
  /* [3][2][][] */ 0.15542186796665192,-0.19632869958877563,-0.053788602352142334, 0.35062128305435181,-0.27049794793128967,-0.16633859276771545, 0.11975596100091934,-0.1154196709394455,-0.038334116339683533, 
  /* [4][0][][] */ -0.63497549295425415,-1.2581963539123535,-0.21245144307613373, 1.4880391359329224,2.438152551651001,0.5307997465133667, -0.82689410448074341,-1.5385599136352539,-0.18947967886924744, 
  /* [4][1][][] */ -1.5091958045959473,-3.2016463279724121,-0.47334522008895874, 3.4694328308105469,6.8774943351745605,1.0434485673904419, -1.814698338508606,-3.2919163703918457,-0.38362261652946472, 
  /* [4][2][][] */ -0.47868320345878601,-0.68425816297531128,0.17553479969501495, 1.1640312671661377,1.3527703285217285,-0.1408054381608963, -0.60570579767227173,-0.68046671152114868,-0.097451880574226379, 
  /* [5][0][][] */ -0.052289333194494247,-0.097258485853672028,-0.043056007474660873, -0.088487610220909119,-0.14189189672470093,-0.073770448565483093, -0.080239273607730865,-0.05158604308962822,-0.033349189907312393, 
  /* [5][1][][] */ -0.11260318756103516,-0.19532923400402069,-0.083824113011360168, -0.15663807094097137,-0.23521304130554199,-0.109998419880867, -0.095011301338672638,-0.070146836340427399,-0.048059463500976562, 
  /* [5][2][][] */ -0.005654333159327507,0.0049200374633073807,-0.019408416002988815, -0.009412846527993679,-0.0041667618788778782,-0.01136383879929781, -0.012360082939267159,0.012939823791384697,0.00036056642420589924, 
  /* [6][0][][] */ -0.66042256355285645,-0.044668093323707581,0.24454939365386963, 0.014802976511418819,0.12094482779502869,-0.086172513663768768, 0.43780386447906494,0.10144044458866119,-0.12899120151996613, 
  /* [6][1][][] */ -0.86003619432449341,-0.24810506403446198,0.29471138119697571, 0.081624016165733337,0.11927971988916397,-0.17974238097667694, 0.71304720640182495,0.09011048823595047,-0.21384216845035553, 
  /* [6][2][][] */ -0.34861299395561218,-0.10402972251176834,0.11502368003129959, 0.091781884431838989,-0.066196262836456299,-0.014767137356102467, 0.21992588043212891,-0.10464728623628616,0.19648216664791107, 
  /* [7][0][][] */ -0.15194439888000488,0.50863814353942871,-0.027798872441053391, -0.45927613973617554,0.6919286847114563,-0.18140824139118195, -0.1989598274230957,0.64834922552108765,-0.21581268310546875, 
  /* [7][1][][] */ 0.52934187650680542,2.5636930465698242,-0.14678147435188293, 0.69607090950012207,3.8634884357452393,-0.64299112558364868, -0.069531016051769257,1.8326610326766968,-0.79046386480331421, 
  /* [7][2][][] */ -0.82704418897628784,-1.480225682258606,-0.57027357816696167, -1.2744196653366089,-1.5469006299972534,-0.95517009496688843, -0.57939714193344116,0.14958527684211731,-0.54723215103149414, 
};
const TfArray<4, int> tensor_dimension28 = { 4, { 8,3,3,3 } };
const MODEL_SECTION(EI_MODEL_SECTION) ALIGN(16) float tensor_data29[8*1*1*8] = { 
  /* [0][0][][] */ -0.16117720305919647,-0.16155481338500977,-0.24039295315742493,0.17676669359207153,-0.11036114394664764,-1.5317267179489136,0.093720398843288422,0.42349937558174133, 
  /* [1][0][][] */ -0.71644705533981323,0.30073177814483643,-1.5590707063674927,1.4455311298370361,0.082245334982872009,0.74702703952789307,-0.21659892797470093,0.48764696717262268, 
  /* [2][0][][] */ 0.12629179656505585,-0.17953453958034515,0.44037091732025146,-0.1160920262336731,-0.1850539892911911,-2.5548202991485596,0.27560466527938843,0.47161349654197693, 
  /* [3][0][][] */ 0.23498527705669403,0.55602568387985229,0.53022408485412598,1.2865746021270752,0.17614516615867615,-0.39824599027633667,-0.43278485536575317,-0.12394903600215912, 
  /* [4][0][][] */ 0.18663059175014496,0.67043238878250122,0.26333221793174744,-0.20819826424121857,-1.5389424562454224,-0.098971277475357056,0.33741700649261475,-0.10105918347835541, 
  /* [5][0][][] */ 0.3837897777557373,-0.14093394577503204,0.76440054178237915,-0.63668644428253174,0.10381029546260834,-0.35279396176338196,-0.035675350576639175,-0.27617201209068298, 
  /* [6][0][][] */ 0.44772857427597046,1.8910597562789917,0.71044808626174927,-0.54065775871276855,0.56114870309829712,-0.17670688033103943,-1.0137763023376465,-0.27640873193740845, 
  /* [7][0][][] */ -0.20028024911880493,-0.25076937675476074,-0.41713577508926392,-0.17801828682422638,-0.12459725141525269,-1.2452806234359741,0.22116349637508392,0.44231751561164856, 
};
const TfArray<4, int> tensor_dimension29 = { 4, { 8,1,1,8 } };
const MODEL_SECTION(EI_MODEL_SECTION) ALIGN(16) float tensor_data30[48*1*1*8] = { 
  /* [0][0][][] */ 0.045535817742347717,0.21591076254844666,0.026951093226671219,-0.082996338605880737,0.39144235849380493,-0.11175447702407837,0.51816534996032715,-0.0092644151300191879, 
  /* [1][0][][] */ 0.30731785297393799,0.19962412118911743,0.17499230802059174,0.032632619142532349,-0.014517883770167828,-0.10301251709461212,-0.01448315754532814,0.28531241416931152, 
  /* [2][0][][] */ -0.062789827585220337,0.011990556493401527,-0.0025476354639977217,0.12749141454696655,0.010853976011276245,-0.014812426641583443,-0.03472856804728508,0.060949601233005524, 
  /* [3][0][][] */ 0.13744606077671051,-0.079715907573699951,-0.35866683721542358,0.0049829035997390747,-0.0081879515200853348,-0.1313750296831131,0.065095372498035431,0.32907137274742126, 
  /* [4][0][][] */ -0.37717926502227783,0.25089365243911743,-0.39111557602882385,-0.051470555365085602,0.054143436253070831,0.090394474565982819,-0.13182823359966278,-0.12836495041847229, 
  /* [5][0][][] */ 1.2767333984375,-0.15422753989696503,-0.028728727251291275,-0.45471617579460144,-0.02213752456009388,-0.31742796301841736,0.089111611247062683,-1.2681847810745239, 
  /* [6][0][][] */ 0.051738649606704712,-0.082809925079345703,-0.01515565812587738,0.0070980205200612545,-1.1269348859786987,-0.25371947884559631,0.5417822003364563,0.060589179396629333, 
  /* [7][0][][] */ -0.018514262512326241,-0.46230879426002502,-0.029439279809594154,0.0017833028687164187,-0.18958209455013275,0.01943008229136467,-0.97143709659576416,-0.01064925454556942, 
  /* [8][0][][] */ -0.067437231540679932,0.20140422880649567,0.20934629440307617,-0.022394007071852684,0.80432230234146118,0.075220867991447449,-0.40271583199501038,-0.1176191121339798, 
  /* [9][0][][] */ 0.42448762059211731,-0.11805249750614166,0.099713295698165894,0.017214836552739143,-0.024650599807500839,-0.10046589374542236,0.13314038515090942,0.34517937898635864, 
  /* [10][0][][] */ 2.3575937747955322,0.15025836229324341,-0.10173099488019943,-0.63728570938110352,-0.067770719528198242,0.16870610415935516,-0.029979029670357704,-2.3062853813171387, 
  /* [11][0][][] */ -0.16758134961128235,0.016028979793190956,-0.015974942594766617,0.39060881733894348,-0.010872511193156242,-0.15100505948066711,-0.10899906605482101,0.10189884155988693, 
  /* [12][0][][] */ -0.091230668127536774,-0.0032170109916478395,-0.052806008607149124,-0.012077115476131439,0.0091482307761907578,0.083550281822681427,-0.045271024107933044,-0.094710297882556915, 
  /* [13][0][][] */ 0.40858259797096252,0.021563922986388206,0.47184517979621887,0.047118473798036575,-0.026131434366106987,0.083780474960803986,0.096762470901012421,0.17477655410766602, 
  /* [14][0][][] */ -0.85696685314178467,-0.023021603003144264,0.0864553302526474,0.11805087327957153,-0.003122957656159997,-0.11547502130270004,0.043810680508613586,0.85293233394622803, 
  /* [15][0][][] */ -0.050192095339298248,0.0060456455685198307,0.0012383363209664822,0.047633428126573563,-0.00097012059995904565,-0.0030975877307355404,-0.0098381806164979935,0.048607703298330307, 
  /* [16][0][][] */ 0.1808307021856308,-0.19532234966754913,0.36614829301834106,0.23214717209339142,-0.03946409747004509,-0.35835865139961243,0.095944218337535858,0.19608277082443237, 
  /* [17][0][][] */ 0.063953638076782227,-0.23135958611965179,-0.3104323148727417,0.48132205009460449,0.025742439553141594,0.10303997993469238,-0.025695020332932472,0.44421511888504028, 
  /* [18][0][][] */ 0.047748789191246033,-0.1291009932756424,-0.37840315699577332,0.14602294564247131,-0.054347317665815353,0.028667865321040154,0.13256330788135529,0.40210556983947754, 
  /* [19][0][][] */ 0.051599849015474319,0.031504321843385696,-0.02100490964949131,0.25355911254882812,-0.011795460246503353,0.0035551593173295259,-0.13578160107135773,-0.081970535218715668, 
  /* [20][0][][] */ 0.022217245772480965,0.065098889172077179,0.14801031351089478,-0.15455792844295502,0.0047773178666830063,-0.095063947141170502,0.0077195232734084129,-0.16899973154067993, 
  /* [21][0][][] */ 0.054581694304943085,-0.026315692812204361,-0.073567979037761688,0.019815202802419662,-1.6834183931350708,-0.15062950551509857,0.69565242528915405,0.05675218254327774, 
  /* [22][0][][] */ 0.0016143302200362086,0.26500219106674194,-0.0027204218786209822,-0.052086777985095978,0.021560553461313248,0.61634451150894165,-0.047525424510240555,-0.0017984978621825576, 
  /* [23][0][][] */ 0.87412381172180176,0.18115212023258209,-0.033783681690692902,0.68360918760299683,-0.047826487571001053,0.014466545544564724,-0.33410879969596863,-0.90035521984100342, 
  /* [24][0][][] */ -0.29772797226905823,0.039386704564094543,-0.2192019522190094,-0.11911281943321228,0.046704657375812531,-0.08272235095500946,-0.12027060240507126,-0.15706770122051239, 
  /* [25][0][][] */ -0.042765513062477112,-0.0002292700664838776,-0.054717760533094406,-0.03578576073050499,0.0053226975724101067,-0.11974171549081802,0.0088154375553131104,-0.035736206918954849, 
  /* [26][0][][] */ -0.42348673939704895,-0.076930679380893707,-0.52935487031936646,0.059541810303926468,0.030640957877039909,0.015673533082008362,-0.081593714654445648,-0.14029216766357422, 
  /* [27][0][][] */ 0.31798064708709717,0.00015613784489687532,0.40652498602867126,0.047492854297161102,-0.023633070290088654,0.15854199230670929,0.050248388200998306,0.1176600307226181, 
  /* [28][0][][] */ 0.11880921572446823,-0.774505615234375,-0.21536561846733093,0.46151238679885864,0.28521287441253662,-1.4572679996490479,0.0080701699480414391,0.2100067138671875, 
  /* [29][0][][] */ -0.038849595934152603,-0.038316305726766586,0.11191896349191666,-0.59141039848327637,-0.082373566925525665,-0.01900298148393631,0.091272115707397461,-0.011721130460500717, 
  /* [30][0][][] */ -0.45988065004348755,0.068337626755237579,1.3930789232254028,-0.048841051757335663,-0.0022500574123114347,0.042980298399925232,-0.076803088188171387,-1.2560341358184814, 
  /* [31][0][][] */ -0.014746385626494884,0.14019186794757843,0.061256896704435349,0.0096231410279870033,1.6667062044143677,0.3343646228313446,-0.69115835428237915,0.025753548368811607, 
  /* [32][0][][] */ -0.15897117555141449,-0.026114676147699356,-0.14074821770191193,-0.014289380982518196,0.0029909762088209391,-0.033674813807010651,-0.028864180669188499,-0.07764609158039093, 
  /* [33][0][][] */ 0.029658094048500061,-0.13058783113956451,0.017681078985333443,-0.078817769885063171,0.079378597438335419,-0.27964046597480774,0.026379022747278214,-0.0392896868288517, 
  /* [34][0][][] */ -0.15827450156211853,-0.35878866910934448,-0.37679854035377502,0.21688048541545868,0.0025251910556107759,-0.16888481378555298,-0.038201149553060532,-0.06092408299446106, 
  /* [35][0][][] */ 0.40373975038528442,0.059178765863180161,-0.82442516088485718,0.013510960154235363,0.0015497596468776464,-0.02300637774169445,0.048319868743419647,0.90687018632888794, 
  /* [36][0][][] */ 0.30959045886993408,0.16814099252223969,0.34429162740707397,0.14374275505542755,0.010796051472425461,0.57829982042312622,0.031944852322340012,0.15387484431266785, 
  /* [37][0][][] */ -0.052553549408912659,0.077301204204559326,-0.023745376616716385,0.52840781211853027,0.030818482860922813,-0.081473410129547119,-0.061497628688812256,0.046640682965517044, 
  /* [38][0][][] */ 0.012560750357806683,0.2585473358631134,0.10659756511449814,0.017468841746449471,1.4526891708374023,0.30451130867004395,-0.44983395934104919,-0.0028288462199270725, 
  /* [39][0][][] */ -0.044485911726951599,0.055113442242145538,-0.023704420775175095,0.070130400359630585,-0.16286027431488037,0.52751326560974121,-0.41369834542274475,-0.026827719062566757, 
  /* [40][0][][] */ 0.42024245858192444,-0.068204067647457123,0.42127576470375061,0.066850781440734863,-0.060741588473320007,0.094128698110580444,0.037484649568796158,0.17609134316444397, 
  /* [41][0][][] */ 0.31801921129226685,0.0011218962026759982,0.33094856142997742,0.034343313425779343,-0.021161450073122978,0.015475082211196423,0.088398642838001251,0.13469964265823364, 
  /* [42][0][][] */ 0.19729474186897278,-0.22134870290756226,-0.038949050009250641,-0.12319574505090714,0.091284982860088348,0.44206723570823669,0.068202793598175049,-0.087574057281017303, 
  /* [43][0][][] */ -0.036345984786748886,-0.32465338706970215,-0.040797177702188492,0.0030066811013966799,-0.22306285798549652,-0.074487276375293732,-0.62192875146865845,0.0098652644082903862, 
  /* [44][0][][] */ -0.03734569251537323,-0.1868448406457901,0.057729925960302353,0.14739447832107544,0.03255147859454155,0.055309206247329712,0.022527549415826797,-0.18417531251907349, 
  /* [45][0][][] */ 0.35029169917106628,0.038213189691305161,0.34191340208053589,-0.004386762622743845,-0.027302820235490799,0.082021623849868774,0.079486221075057983,0.13302348554134369, 
  /* [46][0][][] */ -0.034220136702060699,0.0087177800014615059,0.0011145592434331775,0.052712943404912949,0.00063596025574952364,0.0014577251859009266,-0.014753062278032303,0.029543410986661911, 
  /* [47][0][][] */ -0.028669204562902451,0.31272810697555542,-0.068745240569114685,-0.02668098546564579,-0.0089934403076767921,0.82084840536117554,-0.11800646781921387,0.010235961526632309, 
};
const TfArray<4, int> tensor_dimension30 = { 4, { 48,1,1,8 } };
const MODEL_SECTION(EI_MODEL_SECTION) ALIGN(16) float tensor_data31[8*1*1*48] = { 
  /* [0][0][][] */ -0.22855743765830994,0.27800750732421875,-0.23253743350505829,-0.017269741743803024,-0.3291076123714447,-0.20964528620243073,-0.62753027677536011,0.19418027997016907,0.071135237812995911,0.14403742551803589,0.27522161602973938,0.2938416600227356,0.26113897562026978,0.024084270000457764,-0.34854942560195923,0.0964488685131073,-0.33437901735305786,0.3380725085735321,0.083049356937408447,-0.51055550575256348,0.22007110714912415,0.30532154440879822,-1.0208460092544556,0.041257105767726898,-0.03759809210896492,0.082529656589031219,-0.2519477903842926,0.36344277858734131,-0.04239341989159584,-0.11174016445875168,0.15436477959156036,0.17446669936180115,0.1009562760591507,-0.20180477201938629,0.25347581505775452,0.13077110052108765,-0.020886249840259552,0.85301882028579712,-0.53639143705368042,-0.13819268345832825,-0.078923135995864868,0.13483759760856628,-0.22146989405155182,0.22634333372116089,0.023357126861810684,0.060093924403190613,0.16708879172801971,-0.026262901723384857, 
  /* [1][0][][] */ -0.34094330668449402,-0.43776559829711914,-0.26842036843299866,0.017920494079589844,0.40507149696350098,-0.12365686148405075,-0.5709068775177002,0.25998660922050476,-0.11248045414686203,-0.14341236650943756,-0.037921346724033356,-0.33052584528923035,-0.10740189254283905,0.35491505265235901,0.015134784393012524,-0.039944175630807877,0.50375181436538696,-0.54225873947143555,-0.026273813098669052,-0.079977251589298248,-0.274649977684021,0.0093667395412921906,0.0042660562321543694,-0.088903956115245819,0.10637906938791275,-0.019381338730454445,-0.13073933124542236,-0.23429194092750549,0.10938514769077301,-0.049959775060415268,-0.50792020559310913,-0.10483594983816147,0.1188543513417244,-0.25971683859825134,-0.35388404130935669,-0.43810978531837463,0.20166075229644775,0.042563706636428833,-0.41400673985481262,-0.014486935921013355,-0.017786715179681778,0.18195720016956329,0.03138444572687149,0.35271966457366943,-0.045784220099449158,0.017855286598205566,0.027182949706912041,0.19411355257034302, 
  /* [2][0][][] */ 0.035452600568532944,-0.50907725095748901,0.060316745191812515,0.38288745284080505,0.76791077852249146,0.111430324614048,0.69361042976379395,-0.029385462403297424,-0.21502797305583954,-0.23490656912326813,-0.10525936633348465,-0.36163228750228882,-0.013938947580754757,-0.21917611360549927,0.12603460252285004,0.21327449381351471,-0.21383599936962128,-0.63704067468643188,0.29128366708755493,-0.45436298847198486,0.020324379205703735,-0.47652056813240051,-0.40985828638076782,0.09259023517370224,-0.52001214027404785,0.40004560351371765,0.49349632859230042,-0.69157040119171143,-0.27538406848907471,-0.056704193353652954,-0.45351257920265198,-0.30634033679962158,0.10835216194391251,-0.0055704992264509201,-0.52842473983764648,-0.35053765773773193,-0.054988730698823929,0.9023163914680481,0.5365455150604248,-0.25215804576873779,-0.10632925480604172,0.036471758037805557,-0.17299553751945496,-0.52411824464797974,0.28613406419754028,0.2409074604511261,0.33766132593154907,-0.18463714420795441, 
  /* [3][0][][] */ 0.038435384631156921,0.034823387861251831,0.13774082064628601,-0.14749173820018768,0.29727905988693237,0.17430245876312256,0.14870356023311615,-0.73486834764480591,0.20475521683692932,0.17337958514690399,-0.071251250803470612,0.088503025472164154,0.0076693673618137836,-0.90661776065826416,-0.17391975224018097,0.0062768738716840744,-0.2261110246181488,0.088891580700874329,-0.177713543176651,-0.03604334220290184,-0.049357559531927109,0.43312579393386841,-1.0856227874755859,0.056108936667442322,0.14147888123989105,-0.79074805974960327,0.28686445951461792,0.26230317354202271,0.36230307817459106,-0.10868210345506668,-0.24680295586585999,0.47770640254020691,0.012574533000588417,0.039217919111251831,-0.01122703030705452,-0.26044350862503052,-0.8110344409942627,-0.38019225001335144,0.03672226145863533,-0.1595596969127655,-0.10048184543848038,-0.028772272169589996,0.30035173892974854,-0.0052733435295522213,-0.15117461979389191,0.0091611547395586967,0.0046924902126193047,-0.42217996716499329, 
  /* [4][0][][] */ 0.24463070929050446,-0.43338972330093384,0.034091543406248093,0.54895526170730591,0.37783092260360718,0.08434440940618515,-0.2242732048034668,-0.039649434387683868,-0.31393769383430481,-0.10929683595895767,0.14636079967021942,-0.26260718703269958,0.55433911085128784,0.27008378505706787,-0.13059957325458527,0.21590641140937805,-0.3410775363445282,-0.50638723373413086,0.47050684690475464,0.2523212730884552,0.27712687849998474,-0.40545123815536499,0.9067922830581665,0.1594359278678894,-0.23447133600711823,0.065887726843357086,-0.38388392329216003,-0.14168792963027954,-0.09357006847858429,0.14225362241268158,-0.55835890769958496,-0.30518642067909241,0.61581361293792725,-0.1904948353767395,-0.33366602659225464,-0.4879186749458313,-0.32870689034461975,-0.33806878328323364,-0.18621520698070526,-0.014123640023171902,-0.4597490131855011,0.71068090200424194,0.0064670918509364128,-0.046310272067785263,0.42539983987808228,0.59016668796539307,0.29815751314163208,0.18189336359500885, 
  /* [5][0][][] */ -0.29574590921401978,-0.096768558025360107,-0.16454760730266571,0.25471237301826477,-0.018367215991020203,0.035678941756486893,-0.011563490144908428,-0.25272232294082642,-0.28896686434745789,-0.1691940575838089,-0.011707299388945103,-0.10588528215885162,0.075253769755363464,0.20076882839202881,-0.34522461891174316,0.082937628030776978,0.60501718521118164,-0.066661588847637177,0.26809269189834595,-0.36578890681266785,0.1417330801486969,-0.47223463654518127,-0.029456041753292084,-0.013240658678114414,0.42842280864715576,-0.53011512756347656,-0.48814862966537476,-0.035775408148765564,0.26000270247459412,-0.19116440415382385,0.16586263477802277,-0.3666103184223175,0.054710254073143005,-0.26933583617210388,-0.15966238081455231,0.13800214231014252,-0.38740170001983643,-0.097811587154865265,0.075410917401313782,-0.14872756600379944,-0.20419006049633026,0.12754830718040466,0.43767264485359192,0.21182294189929962,0.17929492890834808,0.087074898183345795,0.12846942245960236,-0.19389830529689789, 
  /* [6][0][][] */ -0.22592203319072723,0.050287764519453049,-0.22965165972709656,0.23483374714851379,-0.1716599315404892,0.48881763219833374,-0.49406018853187561,0.067122265696525574,-0.13151159882545471,0.013986294157803059,-0.84472936391830444,0.072578519582748413,0.32325825095176697,0.2481258362531662,0.77087211608886719,0.12305160611867905,0.14733743667602539,0.064065925776958466,0.28531551361083984,-0.071350246667861938,0.26208841800689697,-0.092706054449081421,-0.28672432899475098,-0.10822305828332901,0.056946434080600739,0.013616694137454033,-0.46750840544700623,0.10919926315546036,0.0069882208481431007,-0.3364807665348053,0.041315708309412003,-0.14634259045124054,0.21985951066017151,-0.28909030556678772,0.06171785295009613,0.068204082548618317,-0.019968472421169281,-0.043734509497880936,-0.35179641842842102,-0.15426431596279144,-0.24286693334579468,0.29731008410453796,-0.15431584417819977,0.19024918973445892,0.18996837735176086,0.1960323303937912,0.20261561870574951,-0.022941451519727707, 
  /* [7][0][][] */ 0.73751240968704224,-0.10236098617315292,0.91247981786727905,-0.4133857786655426,0.038274701684713364,0.17942231893539429,0.30206158757209778,-0.26899191737174988,0.33277300000190735,0.10265952348709106,-0.190929114818573,-0.063937366008758545,-0.26710301637649536,-0.16166976094245911,-0.021300438791513443,-0.29934051632881165,0.28793010115623474,-0.069883950054645538,-0.57124894857406616,-0.43028327822685242,-0.49534362554550171,0.35098013281822205,2.9865303039550781,0.32185268402099609,0.1442999541759491,-0.33854416012763977,0.0061630206182599068,0.22613538801670074,0.16710455715656281,-0.2212776392698288,-0.53037911653518677,0.33051908016204834,-0.032830003648996353,0.49129968881607056,-0.02145763486623764,-0.44431725144386292,-0.24804465472698212,0.28676262497901917,0.16192935407161713,0.63937866687774658,0.13474318385124207,-0.070790112018585205,0.19495202600955963,-0.063607007265090942,-0.40110829472541809,-0.008177638053894043,-0.54349756240844727,0.36269637942314148, 
};
const TfArray<4, int> tensor_dimension31 = { 4, { 8,1,1,48 } };
const MODEL_SECTION(EI_MODEL_SECTION) ALIGN(16) float tensor_data32[48*1*1*8] = { 
  /* [0][0][][] */ -0.34194472432136536,-0.035599756985902786,0.079855889081954956,-0.28338378667831421,-0.31320136785507202,0.30213233828544617,-0.00045461187255568802,-0.14167132973670959, 
  /* [1][0][][] */ 0.34124314785003662,0.004198592621833086,0.075381152331829071,-0.11297605186700821,0.012006442062556744,0.23934614658355713,-0.5283510684967041,0.16724333167076111, 
  /* [2][0][][] */ -0.1057455837726593,0.11142121255397797,-0.28652158379554749,0.21225848793983459,-0.14635206758975983,0.33553189039230347,0.030535504221916199,0.12572671473026276, 
  /* [3][0][][] */ 0.11440322548151016,-0.031040174886584282,-0.036900918930768967,0.092323772609233856,-0.0069413119927048683,-0.081068925559520721,0.01360110379755497,0.15443383157253265, 
  /* [4][0][][] */ -0.71789389848709106,-0.065086983144283295,-0.078977003693580627,0.11249663680791855,-0.18024705350399017,-0.32372459769248962,1.2028176784515381,0.022059287875890732, 
  /* [5][0][][] */ 0.096417717635631561,0.16574336588382721,0.018889166414737701,0.058861415833234787,-0.20795980095863342,-0.083305999636650085,0.010649446398019791,-0.058083716779947281, 
  /* [6][0][][] */ 0.0012124504428356886,-0.37375780940055847,0.17227388918399811,0.70727044343948364,0.066722385585308075,-0.503834068775177,-0.094068422913551331,0.23030413687229156, 
  /* [7][0][][] */ 0.27684208750724792,-0.0096310954540967941,0.25834569334983826,0.0029548536986112595,-0.16273276507854462,0.065778642892837524,0.17020411789417267,0.29764524102210999, 
  /* [8][0][][] */ -0.10734660923480988,-0.42889150977134705,0.13909183442592621,0.1433669775724411,0.26209479570388794,-0.11168138682842255,-0.09233846515417099,-0.0065595698542892933, 
  /* [9][0][][] */ -0.18858927488327026,-0.22913837432861328,0.029521359130740166,-0.054777942597866058,-0.056443348526954651,-0.0020767624955624342,-0.11796057969331741,0.286996990442276, 
  /* [10][0][][] */ -0.082237005233764648,-0.34791585803031921,0.069744393229484558,0.2995762825012207,0.17088006436824799,0.32098820805549622,0.030404137447476387,-0.064933039247989655, 
  /* [11][0][][] */ -0.16883821785449982,-0.17242567241191864,0.034568335860967636,-0.096387282013893127,0.079553954303264618,0.084614478051662445,-0.05107271671295166,0.17661729454994202, 
  /* [12][0][][] */ 0.25897768139839172,-0.058577269315719604,0.32125812768936157,-0.25018563866615295,0.10043825954198837,-0.43019381165504456,0.29771244525909424,0.018199114128947258, 
  /* [13][0][][] */ 0.096896030008792877,0.048234324902296066,0.054464895278215408,0.34768348932266235,-0.047587960958480835,0.030887849628925323,0.10037639737129211,-0.17535500228404999, 
  /* [14][0][][] */ -0.10375763475894928,-0.015306406654417515,0.092541679739952087,0.0013664149446412921,0.28647854924201965,-0.041732534766197205,9.9606213552760892e-06,0.28248071670532227, 
  /* [15][0][][] */ -0.23207037150859833,0.33803638815879822,0.12957325577735901,0.20088298618793488,0.17768764495849609,0.28626763820648193,-0.12385391443967819,0.25906109809875488, 
  /* [16][0][][] */ -0.010908820666372776,-0.11612966656684875,-0.22174441814422607,-0.46859565377235413,-0.20735937356948853,0.25650531053543091,0.077323995530605316,0.24000668525695801, 
  /* [17][0][][] */ 0.086500130593776703,0.44329279661178589,0.028939051553606987,0.19002813100814819,-0.088169589638710022,-0.15812034904956818,-0.015174759551882744,0.059099819511175156, 
  /* [18][0][][] */ 0.041516970843076706,0.065961010754108429,-0.031803309917449951,-0.24501568078994751,-0.10229597240686417,-0.17023316025733948,0.047577746212482452,-0.024530211463570595, 
  /* [19][0][][] */ 0.20328859984874725,-0.31711193919181824,-0.68409204483032227,-0.58145630359649658,-0.37074494361877441,0.55034822225570679,0.11183643341064453,-0.043052036315202713, 
  /* [20][0][][] */ 0.14175094664096832,0.026993013918399811,0.078678667545318604,-0.02635534293949604,0.63481122255325317,0.11723070591688156,0.16933605074882507,-0.20220653712749481, 
  /* [21][0][][] */ -0.1955241858959198,-0.11378882080316544,-0.11400461196899414,-0.13531516492366791,0.064454294741153717,0.074334003031253815,0.10909148305654526,-0.036374796181917191, 
  /* [22][0][][] */ -0.094097450375556946,-0.064443036913871765,0.10322919487953186,0.16365867853164673,0.069686397910118103,-0.058231621980667114,-0.060915812849998474,0.17225003242492676, 
  /* [23][0][][] */ 0.10697121918201447,0.15415871143341064,-0.18435785174369812,0.45923429727554321,0.4277493953704834,0.12527918815612793,0.15121550858020782,0.3298359215259552, 
  /* [24][0][][] */ 0.33312812447547913,-0.015218273736536503,-0.3036685585975647,-0.068303510546684265,0.0077069271355867386,-0.069165445864200592,0.11205132305622101,-0.14010350406169891, 
  /* [25][0][][] */ 0.014701220206916332,-0.020111959427595139,-0.13418106734752655,-0.080600298941135406,0.25527608394622803,-0.091846495866775513,-0.41814404726028442,-0.21346107125282288, 
  /* [26][0][][] */ 0.41669133305549622,0.010683521628379822,0.30297994613647461,-0.10952058434486389,-0.29193791747093201,0.14680826663970947,0.20466561615467072,0.35349589586257935, 
  /* [27][0][][] */ 0.048297040164470673,-0.18521811068058014,-0.11570318788290024,0.4001426100730896,0.15164950489997864,-0.021905019879341125,-0.096062205731868744,-0.38129296898841858, 
  /* [28][0][][] */ -0.18819841742515564,0.41844865679740906,0.2609342634677887,0.22465887665748596,0.19698326289653778,-0.061537977308034897,-0.076743252575397491,0.0057832091115415096, 
  /* [29][0][][] */ -0.0010554095497354865,0.003222794970497489,0.35743343830108643,0.027327327057719231,-0.55660879611968994,0.00035599389229901135,0.94751745462417603,0.47748249769210815, 
  /* [30][0][][] */ -0.081710271537303925,-0.12508286535739899,0.07401546835899353,-0.11059395968914032,-0.11887135356664658,0.19984745979309082,0.097589150071144104,0.055495273321866989, 
  /* [31][0][][] */ 0.25003379583358765,0.051593586802482605,0.18642121553421021,-0.042571216821670532,-0.19865670800209045,0.16943058371543884,0.17619617283344269,0.26875564455986023, 
  /* [32][0][][] */ -0.45147243142127991,-0.073564276099205017,-0.13778243958950043,0.13257059454917908,-0.083747304975986481,0.10836751759052277,0.52720004320144653,0.088109381496906281, 
  /* [33][0][][] */ -0.39856001734733582,0.40867608785629272,0.21789100766181946,0.26890003681182861,0.077531084418296814,0.059986017644405365,-0.261249840259552,0.026782646775245667, 
  /* [34][0][][] */ 0.63019782304763794,0.057041097432374954,0.13749700784683228,-0.07134883850812912,0.04886181652545929,0.29151049256324768,-0.74419158697128296,0.12400961667299271, 
  /* [35][0][][] */ 0.028593892231583595,-0.012811038643121719,0.070303007960319519,0.099836230278015137,-0.15212665498256683,0.10812186449766159,0.028035886585712433,-0.4190351665019989, 
  /* [36][0][][] */ 0.038464140146970749,-0.0072698662988841534,-0.15794685482978821,-0.26495075225830078,0.11805713921785355,-0.042280852794647217,0.06690070778131485,0.30969122052192688, 
